{"learner":{"attributes":{},"feature_names":["BMI","arthritis","smoke","Sleep"],"feature_types":[],"gradient_booster":{"model":{"cats":{"enc":[],"feature_segments":[],"sorted_idx":[]},"gbtree_model_param":{"num_parallel_tree":"1","num_trees":"100"},"iteration_indptr":[0,1,2,3,4,5,6,7,8,9,10,11,12,13,14,15,16,17,18,19,20,21,22,23,24,25,26,27,28,29,30,31,32,33,34,35,36,37,38,39,40,41,42,43,44,45,46,47,48,49,50,51,52,53,54,55,56,57,58,59,60,61,62,63,64,65,66,67,68,69,70,71,72,73,74,75,76,77,78,79,80,81,82,83,84,85,86,87,88,89,90,91,92,93,94,95,96,97,98,99,100],"tree_info":[0,0,0,0,0,0,0,0,0,0,0,0,0,0,0,0,0,0,0,0,0,0,0,0,0,0,0,0,0,0,0,0,0,0,0,0,0,0,0,0,0,0,0,0,0,0,0,0,0,0,0,0,0,0,0,0,0,0,0,0,0,0,0,0,0,0,0,0,0,0,0,0,0,0,0,0,0,0,0,0,0,0,0,0,0,0,0,0,0,0,0,0,0,0,0,0,0,0,0,0],"trees":[{"base_weights":[2.0554213E-8,1.0349046E0,-1.880492E-1,8.505271E-1,3.822871E-1,-3.819124E-1,9.819891E-1,1.5781745E0,2.4137871E-1,-4.9981126E-1,5.7554066E-1,5.0511634E-1,2.274314E0,1.8211403E0,-6.754032E-1,-4.792072E-1,5.266257E-1,-5.886152E-1,-1.2709424E-1,3.6654228E-1,2.1028316E-1,3.4315103E-1,2.6765424E-1,2.607637E0,-3.9026666E-2,2.201869E0,1.0571996E0,-1.9427268E-2,-8.0108054E-2,2.1499693E-1,-6.929572E-1,3.4020326E-1,1.0150405E0,-6.488689E-1,-2.4661204E-1,-7.261357E-1,7.215536E-2,1.0032518E0,5.9628528E-2,7.383525E-1,-1.1953498E-1,3.1021228E0,1.2237539E0,1.443813E-1,2.5502202E-1,2.3829773E-1,5.2530896E-2,-6.641921E-2,8.908028E-2,-7.973855E-3,-8.2536936E-2,4.6163145E-2,-7.731937E-2,2.009853E-1,-9.728193E-3,-1.9964345E-2,-6.913508E-2,3.1663004E-1,-4.8771363E-2,-1.1858789E-2,-9.613111E-2,4.86812E-2,-1.2644886E-2,1.4829145E-1,3.1638078E-3,-2.1607919E-2,8.426366E-2,-1.6070262E-2,1.12388745E-1,-2.7269501E-2,6.294942E-2,3.2940343E-1,1.0417161E-1,5.318284E-3,2.0598653E-1],"categories":[],"categories_nodes":[],"categories_segments":[],"categories_sizes":[],"default_left":[0,0,0,0,0,0,0,0,0,0,0,0,0,0,0,0,0,0,0,0,0,0,0,0,0,0,0,0,0,0,0,0,0,0,0,0,0,0,0,0,0,0,0,0,0,0,0,0,0,0,0,0,0,0,0,0,0,0,0,0,0,0,0,0,0,0,0,0,0,0,0,0,0,0,0],"id":0,"left_children":[1,3,5,7,-1,9,11,13,15,17,19,21,23,25,27,29,31,33,35,37,-1,-1,39,41,-1,43,45,-1,-1,47,49,51,53,55,57,59,61,63,65,67,69,71,73,-1,-1,-1,-1,-1,-1,-1,-1,-1,-1,-1,-1,-1,-1,-1,-1,-1,-1,-1,-1,-1,-1,-1,-1,-1,-1,-1,-1,-1,-1,-1,-1],"loss_changes":[9.528816E1,3.544969E1,9.435881E1,3.1490345E1,0E0,4.049267E1,3.5318523E1,1.9071503E1,8.539876E0,1.0439087E1,1.1842142E1,3.0011553E1,1.4930199E1,6.305916E0,8.02325E-2,1.923379E0,2.3281126E0,5.1206284E0,7.499996E0,6.96901E0,0E0,0E0,7.788924E0,5.8202744E0,0E0,1.3055115E0,7.0669403E0,0E0,0E0,2.7177758E0,6.957884E-1,3.4333234E0,8.613066E0,4.008133E0,3.445647E1,2.1241226E0,3.9924462E0,5.375845E0,5.6510205E0,6.8389664E0,2.9300117E0,4.0483856E-1,5.127577E0,0E0,0E0,0E0,0E0,0E0,0E0,0E0,0E0,0E0,0E0,0E0,0E0,0E0,0E0,0E0,0E0,0E0,0E0,0E0,0E0,0E0,0E0,0E0,0E0,0E0,0E0,0E0,0E0,0E0,0E0,0E0,0E0],"parents":[2147483647,0,0,1,1,2,2,3,3,5,5,6,6,7,7,8,8,9,9,10,10,11,11,12,12,13,13,14,14,15,15,16,16,17,17,18,18,19,19,22,22,23,23,25,25,26,26,29,29,30,30,31,31,32,32,33,33,34,34,35,35,36,36,37,37,38,38,39,39,40,40,41,41,42,42],"right_children":[2,4,6,8,-1,10,12,14,16,18,20,22,24,26,28,30,32,34,36,38,-1,-1,40,42,-1,44,46,-1,-1,48,50,52,54,56,58,60,62,64,66,68,70,72,74,-1,-1,-1,-1,-1,-1,-1,-1,-1,-1,-1,-1,-1,-1,-1,-1,-1,-1,-1,-1,-1,-1,-1,-1,-1,-1,-1,-1,-1,-1,-1,-1],"split_conditions":[6.5E0,6.023855E0,9.203592E0,5.5E0,3.822871E-1,3.81E1,3.5700542E1,4.08E1,2.58E1,1E0,5.12E1,9.5E0,4.98E1,2.97E1,2E0,2E0,3.7E1,8.55243E0,2.44E1,7.5E0,2.1028316E-1,3.4315103E-1,2.67E1,2E0,-3.9026666E-2,2.43E1,3.0768268E0,-1.9427268E-2,-8.0108054E-2,1E0,6E0,2E0,4.05E1,7E0,9E0,7.1956363E0,7.406133E0,4.17E1,1E0,2E0,3.35E1,4.47E1,1.0393358E1,1.443813E-1,2.5502202E-1,2.3829773E-1,5.2530896E-2,-6.641921E-2,8.908028E-2,-7.973855E-3,-8.2536936E-2,4.6163145E-2,-7.731937E-2,2.009853E-1,-9.728193E-3,-1.9964345E-2,-6.913508E-2,3.1663004E-1,-4.8771363E-2,-1.1858789E-2,-9.613111E-2,4.86812E-2,-1.2644886E-2,1.4829145E-1,3.1638078E-3,-2.1607919E-2,8.426366E-2,-1.6070262E-2,1.12388745E-1,-2.7269501E-2,6.294942E-2,3.2940343E-1,1.0417161E-1,5.318284E-3,2.0598653E-1],"split_indices":[3,3,3,3,0,0,0,0,0,2,0,3,0,0,1,1,0,3,0,3,0,0,0,1,0,0,3,0,0,2,3,2,0,3,3,3,3,0,2,1,0,0,3,0,0,0,0,0,0,0,0,0,0,0,0,0,0,0,0,0,0,0,0,0,0,0,0,0,0,0,0,0,0,0,0],"split_type":[0,0,0,0,0,0,0,0,0,0,0,0,0,0,0,0,0,0,0,0,0,0,0,0,0,0,0,0,0,0,0,0,0,0,0,0,0,0,0,0,0,0,0,0,0,0,0,0,0,0,0,0,0,0,0,0,0,0,0,0,0,0,0,0,0,0,0,0,0,0,0,0,0,0,0],"sum_hessian":[4.8762894E2,7.4288475E1,4.1334045E2,7.09044E1,3.3840737E0,3.551666E2,5.817384E1,3.1584688E1,3.9319714E1,3.1665262E2,3.8513985E1,4.350952E1,1.466432E1,2.8684053E1,2.9006348E0,1.0957953E1,2.8361761E1,2.5525586E2,6.1396767E1,3.496876E1,3.5452201E0,2.2560492E0,4.125347E1,1.3052856E1,1.6114638E0,1.7887247E1,1.0796807E1,1.1280246E0,1.7726101E0,2.578342E0,8.379611E0,2.175476E1,6.6070013E0,2.1625844E2,3.899742E1,1.466432E1,4.673245E1,1.063566E1,2.4333103E1,1.820954E1,2.3043932E1,8.701904E0,4.350952E0,7.251587E0,1.063566E1,2.0949028E0,8.701904E0,1.1280246E0,1.4503174E0,1.7726101E0,6.6070013E0,2.0143297E1,1.6114638E0,3.0617812E0,3.5452201E0,1.9176418E1,1.9708202E2,1.7726101E0,3.722481E1,4.5120983E0,1.0152222E1,1.466432E1,3.2068127E1,6.7681475E0,3.867513E0,1.8531834E1,5.8012695E0,5.640123E0,1.2569417E1,1.9659857E1,3.3840737E0,7.412733E0,1.289171E0,2.2560492E0,2.0949028E0],"tree_param":{"num_deleted":"0","num_feature":"4","num_nodes":"75","size_leaf_vector":"1"}},{"base_weights":[2.5649366E-3,8.914315E-1,-1.6985327E-1,7.367127E-1,2.9781416E-1,-3.519585E-1,8.547285E-1,1.3197069E0,2.1495916E-1,-4.64663E-1,5.117588E-1,4.515575E-1,1.8605788E0,1.5097249E0,-6.5053165E-1,-7.5152946E-1,3.9055982E-1,-5.499507E-1,-1.16979256E-1,3.2817808E-1,1.7569839E0,2.7797192E-1,2.3930295E-1,2.105896E0,-3.717952E-2,1.9608492E0,1.01001E0,-7.80197E-2,-1.7313661E-2,-9.4515085E-2,-2.8550535E-2,2.3534907E-1,8.9320135E-1,-6.090432E-1,-2.2137791E-1,-6.891036E-1,6.519381E-2,-1.0849494E-1,6.9414705E-1,2.1002224E-1,2.7416606E-2,6.31198E-1,-1.1926833E-1,1.2805376E0,2.7099118E-1,2.3194313E-1,1.3250284E-1,1.2607345E-1,5.065585E-2,3.6041796E-2,-3.308552E-2,1.696232E-1,-9.012363E-3,-1.8284863E-2,-6.505886E-2,2.6300517E-1,-4.537335E-2,-1.8150054E-2,-9.931664E-2,4.2891227E-2,-1.1507356E-2,-3.0358741E-2,1.108613E-1,9.401136E-2,-1.2294403E-2,-3.921298E-2,8.89787E-2,2.3641631E-2,-4.3644E-2,2.3241554E-1,3.3100955E-2],"categories":[],"categories_nodes":[],"categories_segments":[],"categories_sizes":[],"default_left":[0,0,0,0,0,0,0,0,0,0,0,0,0,0,0,0,0,0,0,0,0,0,0,0,0,0,0,0,0,0,0,0,0,0,0,0,0,0,0,0,0,0,0,0,0,0,0,0,0,0,0,0,0,0,0,0,0,0,0,0,0,0,0,0,0,0,0,0,0,0,0],"id":1,"left_children":[1,3,5,7,-1,9,11,13,15,17,19,21,23,25,27,29,31,33,35,37,39,-1,41,43,-1,45,47,-1,-1,-1,-1,49,51,53,55,57,59,61,63,-1,-1,65,67,69,-1,-1,-1,-1,-1,-1,-1,-1,-1,-1,-1,-1,-1,-1,-1,-1,-1,-1,-1,-1,-1,-1,-1,-1,-1,-1,-1],"loss_changes":[7.4791016E1,2.3402645E1,7.656432E1,2.257196E1,0E0,3.409086E1,2.4292984E1,1.4194828E1,7.2258353E0,9.073204E0,8.708402E0,2.1850348E1,1.0319069E1,5.3436356E0,1.0034287E-1,3.2769752E-1,2.5378213E0,4.664406E0,6.503764E0,5.928778E0,1.9633913E0,0E0,6.0967135E0,4.426094E0,0E0,5.7741547E-1,1.5673904E0,0E0,0E0,0E0,0E0,2.1212707E0,6.4328046E0,3.580429E0,2.7197432E1,2.143063E0,3.191096E0,4.5074725E0,4.147663E0,0E0,0E0,5.808776E0,2.722433E0,7.7419453E0,0E0,0E0,0E0,0E0,0E0,0E0,0E0,0E0,0E0,0E0,0E0,0E0,0E0,0E0,0E0,0E0,0E0,0E0,0E0,0E0,0E0,0E0,0E0,0E0,0E0,0E0,0E0],"parents":[2147483647,0,0,1,1,2,2,3,3,5,5,6,6,7,7,8,8,9,9,10,10,11,11,12,12,13,13,14,14,15,15,16,16,17,17,18,18,19,19,20,20,22,22,23,23,25,25,26,26,31,31,32,32,33,33,34,34,35,35,36,36,37,37,38,38,41,41,42,42,43,43],"right_children":[2,4,6,8,-1,10,12,14,16,18,20,22,24,26,28,30,32,34,36,38,40,-1,42,44,-1,46,48,-1,-1,-1,-1,50,52,54,56,58,60,62,64,-1,-1,66,68,70,-1,-1,-1,-1,-1,-1,-1,-1,-1,-1,-1,-1,-1,-1,-1,-1,-1,-1,-1,-1,-1,-1,-1,-1,-1,-1,-1],"split_conditions":[6.5E0,6.023855E0,9.203592E0,5.5E0,2.9781416E-1,3.81E1,3.5700542E1,4.08E1,2.36E1,1E0,5.12E1,9.5E0,4.98E1,5E0,4.7405734E0,1E0,3.7E1,8.55243E0,2.44E1,2E0,8.5E0,2.7797192E-1,2.68E1,1.0393358E1,-3.717952E-2,2E0,2.96E1,-7.80197E-2,-1.7313661E-2,-9.4515085E-2,-2.8550535E-2,3.38E1,4.05E1,7E0,9E0,2.17E1,7.406133E0,8.55243E0,4.39E1,2.1002224E-1,2.7416606E-2,9.658643E0,2E0,1E1,2.7099118E-1,2.3194313E-1,1.3250284E-1,1.2607345E-1,5.065585E-2,3.6041796E-2,-3.308552E-2,1.696232E-1,-9.012363E-3,-1.8284863E-2,-6.505886E-2,2.6300517E-1,-4.537335E-2,-1.8150054E-2,-9.931664E-2,4.2891227E-2,-1.1507356E-2,-3.0358741E-2,1.108613E-1,9.401136E-2,-1.2294403E-2,-3.921298E-2,8.89787E-2,2.3641631E-2,-4.3644E-2,2.3241554E-1,3.3100955E-2],"split_indices":[3,3,3,3,0,0,0,0,0,2,0,3,0,3,3,2,0,3,0,1,3,0,0,3,0,1,0,0,0,0,0,0,0,3,3,0,3,3,0,0,0,3,1,3,0,0,0,0,0,0,0,0,0,0,0,0,0,0,0,0,0,0,0,0,0,0,0,0,0,0,0],"split_type":[0,0,0,0,0,0,0,0,0,0,0,0,0,0,0,0,0,0,0,0,0,0,0,0,0,0,0,0,0,0,0,0,0,0,0,0,0,0,0,0,0,0,0,0,0,0,0,0,0,0,0,0,0,0,0,0,0,0,0,0,0,0,0,0,0,0,0,0,0,0,0],"sum_hessian":[4.8602313E2,7.8282684E1,4.0774045E2,7.4138725E1,4.1439567E0,3.4676434E2,6.097608E1,3.4292164E1,3.9846565E1,3.071474E2,3.961694E1,4.4563E1,1.6413082E1,3.148897E1,2.8031926E0,5.6222878E0,3.4224277E1,2.4617764E2,6.0969765E1,3.562794E1,3.9889987E0,2.7126398E0,4.185036E1,1.4839062E1,1.5740201E0,1.5012397E1,1.6476574E1,1.7056432E0,1.0975494E0,3.245675E0,2.376613E0,2.727137E1,6.952907E0,2.079289E2,3.8248756E1,1.405297E1,4.6916794E1,1.6565536E1,1.9062403E1,2.90109E0,1.0879087E0,1.963274E1,2.221762E1,7.5890417E0,7.2500205E0,7.9058313E0,7.106565E0,9.994845E0,6.4817286E0,2.2634977E1,4.6363926E0,3.4282424E0,3.5246646E0,1.894832E1,1.8898058E2,2.104432E0,3.6144325E1,5.862694E0,8.190276E0,1.5090324E1,3.1826471E1,1.492392E1,1.6416161E0,1.4536087E1,4.526316E0,3.856155E0,1.5776585E1,1.0592982E1,1.1624638E1,2.925717E0,4.6633244E0],"tree_param":{"num_deleted":"0","num_feature":"4","num_nodes":"71","size_leaf_vector":"1"}},{"base_weights":[4.456874E-3,7.772611E-1,-1.536495E-1,6.4379907E-1,2.4722548E-1,-3.2414162E-1,7.5110275E-1,1.1252046E0,1.9125919E-1,-4.6649086E-1,2.9178247E-1,3.492812E-1,1.4705681E0,1.2797905E0,-6.267587E-1,-7.213538E-1,3.484593E-1,-5.427316E-1,-1.5806477E-1,1.7803812E-1,1.522589E0,2.2589326E-1,1.6762252E-1,1.6200176E0,-3.5420854E-2,1.6302332E0,8.7314326E-1,-1.6503181E-2,-7.549483E-2,-9.155842E-2,-2.6884193E-2,1.6637129E-1,7.0945436E-1,-5.9509087E-1,-2.5257874E-1,3.4948522E-1,-4.0107962E-1,5.030658E-2,9.117827E-1,1.7927222E-1,2.5785217E-2,5.496302E-1,-2.5825563E-1,1.0303757E0,2.1510859E0,1.930783E-1,1.0764253E-1,1.138429E-1,2.4214635E-2,2.8161958E-2,-6.148996E-2,-2.7649193E-3,9.9131815E-2,3.4711856E-2,-6.122005E-2,2.1914147E-1,-4.7499295E-2,-3.0320224E-3,2.806411E-1,-6.572079E-2,5.192433E-3,-2.8876195E-2,3.113468E-2,2.555253E-1,2.5704354E-2,-2.2046646E-2,8.618197E-2,-3.5437938E-2,6.3334815E-2,1.6725568E-1,2.5235802E-2,6.357589E-2,2.2864679E-1],"categories":[],"categories_nodes":[],"categories_segments":[],"categories_sizes":[],"default_left":[0,0,0,0,0,0,0,0,0,0,0,0,0,0,0,0,0,0,0,0,0,0,0,0,0,0,0,0,0,0,0,0,0,0,0,0,0,0,0,0,0,0,0,0,0,0,0,0,0,0,0,0,0,0,0,0,0,0,0,0,0,0,0,0,0,0,0,0,0,0,0,0,0],"id":2,"left_children":[1,3,5,7,-1,9,11,13,15,17,19,21,23,25,27,29,31,33,35,37,39,-1,41,43,-1,45,47,-1,-1,-1,-1,49,51,53,55,57,59,61,63,-1,-1,65,67,69,71,-1,-1,-1,-1,-1,-1,-1,-1,-1,-1,-1,-1,-1,-1,-1,-1,-1,-1,-1,-1,-1,-1,-1,-1,-1,-1,-1,-1],"loss_changes":[5.9305115E1,1.7056496E1,6.2401062E1,1.6727325E1,0E0,2.9925308E1,1.804493E1,1.0952316E1,6.1751537E0,6.412838E0,8.744513E0,1.4365421E1,6.762558E0,3.5312653E0,9.500241E-2,3.1575656E-1,2.241665E0,3.2098846E0,7.0703087E0,5.5852385E0,1.353756E0,0E0,6.63161E0,4.4079895E0,0E0,8.3802795E-1,2.7787523E0,0E0,0E0,0E0,0E0,2.439339E0,2.4644337E0,3.2211456E0,2.0364422E1,1.755945E1,4.496543E0,4.713053E0,8.866317E0,0E0,0E0,5.3223505E0,1.8993037E0,5.5454626E0,6.410866E-1,0E0,0E0,0E0,0E0,0E0,0E0,0E0,0E0,0E0,0E0,0E0,0E0,0E0,0E0,0E0,0E0,0E0,0E0,0E0,0E0,0E0,0E0,0E0,0E0,0E0,0E0,0E0,0E0],"parents":[2147483647,0,0,1,1,2,2,3,3,5,5,6,6,7,7,8,8,9,9,10,10,11,11,12,12,13,13,14,14,15,15,16,16,17,17,18,18,19,19,20,20,22,22,23,23,25,25,26,26,31,31,32,32,33,33,34,34,35,35,36,36,37,37,38,38,41,41,42,42,43,43,44,44],"right_children":[2,4,6,8,-1,10,12,14,16,18,20,22,24,26,28,30,32,34,36,38,40,-1,42,44,-1,46,48,-1,-1,-1,-1,50,52,54,56,58,60,62,64,-1,-1,66,68,70,72,-1,-1,-1,-1,-1,-1,-1,-1,-1,-1,-1,-1,-1,-1,-1,-1,-1,-1,-1,-1,-1,-1,-1,-1,-1,-1,-1,-1],"split_conditions":[6.5E0,6.023855E0,9.203592E0,5.5E0,2.4722548E-1,3.508986E1,3.35E1,4.08E1,2.36E1,1E0,5.12E1,9.5E0,4.98E1,2E0,2E0,1E0,1E0,8.55243E0,7.406133E0,8.55243E0,8.5E0,2.2589326E-1,2.68E1,1.0393358E1,-3.5420854E-2,2.79E1,3.02E1,-1.6503181E-2,-7.549483E-2,-9.155842E-2,-2.6884193E-2,4.05E1,5.7438874E0,1.89E1,9E0,7.0024786E0,2.84E1,2E0,9E0,1.7927222E-1,2.5785217E-2,2E0,1.2E1,1E1,3.61E1,1.930783E-1,1.0764253E-1,1.138429E-1,2.4214635E-2,2.8161958E-2,-6.148996E-2,-2.7649193E-3,9.9131815E-2,3.4711856E-2,-6.122005E-2,2.1914147E-1,-4.7499295E-2,-3.0320224E-3,2.806411E-1,-6.572079E-2,5.192433E-3,-2.8876195E-2,3.113468E-2,2.555253E-1,2.5704354E-2,-2.2046646E-2,8.618197E-2,-3.5437938E-2,6.3334815E-2,1.6725568E-1,2.5235802E-2,6.357589E-2,2.2864679E-1],"split_indices":[3,3,3,3,0,0,0,0,0,2,0,3,0,1,1,2,2,3,3,3,3,0,0,3,0,0,0,0,0,0,0,0,3,0,3,3,0,1,3,0,0,1,3,3,0,0,0,0,0,0,0,0,0,0,0,0,0,0,0,0,0,0,0,0,0,0,0,0,0,0,0,0,0],"split_type":[0,0,0,0,0,0,0,0,0,0,0,0,0,0,0,0,0,0,0,0,0,0,0,0,0,0,0,0,0,0,0,0,0,0,0,0,0,0,0,0,0,0,0,0,0,0,0,0,0,0,0,0,0,0,0,0,0,0,0,0,0,0,0,0,0,0,0,0,0,0,0,0,0],"sum_hessian":[4.83393E2,8.143463E1,4.0195837E2,7.676969E1,4.6649404E0,3.387633E2,6.3195053E1,3.6478237E1,4.029145E1,2.75365E2,6.3398335E1,4.1501778E1,2.169328E1,3.3768185E1,2.7100537E0,5.393154E0,3.4898296E1,2.2017871E2,5.518626E1,5.9082874E1,4.3154616E0,2.6117048E0,3.889007E1,2.0154806E1,1.5384719E0,1.6521357E1,1.7246828E1,1.085954E0,1.6240997E0,3.057469E0,2.3356855E0,2.4168455E1,1.0729842E1,1.8563004E2,3.4548687E1,1.7726131E1,3.746013E1,5.123275E1,7.8501253E0,3.2119577E0,1.103504E0,2.0347775E1,1.8542297E1,1.0943972E1,9.210835E0,9.097693E0,7.423664E0,1.1575884E1,5.6709433E0,2.1618902E1,2.5495517E0,3.2175403E0,7.5123024E0,2.9667392E0,1.8266328E2,2.143378E0,3.240531E1,1.6208231E1,1.5179005E0,2.364211E1,1.381802E1,2.2239447E1,2.8993301E1,1.409476E0,6.440649E0,5.95414E0,1.4393635E1,1.7281696E1,1.2606008E0,5.365491E0,5.5784807E0,1.2225785E0,7.9882565E0],"tree_param":{"num_deleted":"0","num_feature":"4","num_nodes":"73","size_leaf_vector":"1"}},{"base_weights":[6.912368E-3,6.824465E-1,-1.377898E-1,5.6492305E-1,2.1361153E-1,-2.9719988E-1,6.686211E-1,9.7284424E-1,1.6803665E-1,-4.3546224E-1,2.5799298E-1,3.616892E-1,1.3709899E0,1.1022599E0,-6.0417104E-1,-4.3154472E-1,3.8188305E-1,-5.110611E-1,-1.3814598E-1,1.5698138E-1,1.3397522E0,2.0729862E-1,1.873044E-1,1.531282E0,-3.3745874E-2,1.4384334E0,7.250929E-1,-7.364469E-2,-1.459177E-2,1.9700393E-1,-6.387439E-1,2.2886738E-1,7.8127044E-1,2.8770068E-1,-5.2692175E-1,3.2392243E-1,-3.6849403E-1,2.6539868E-2,8.9827365E-1,1.5606748E-1,2.425533E-2,5.0274473E-2,1.0118276E0,1.839385E0,6.788115E-1,1.6780077E-1,1.02210395E-1,9.742728E-3,8.827551E-2,-6.209537E-2,7.671519E-2,-4.4009746E-3,-7.7502325E-2,3.3861768E-2,-7.860281E-2,1.4077875E-1,-6.7982883E-3,-1.36439195E-2,6.317841E-2,-5.751398E-2,-2.6193356E-2,-2.751249E-3,2.396727E-1,-6.195364E-2,6.0973503E-3,-2.8875677E-2,2.5987804E-2,2.2236851E-1,3.3378925E-2,-8.809291E-2,1.2790697E-2,1.7127924E-1,-3.453483E-3,1.9502898E-1,6.624408E-2,-4.5789815E-2,1.13708936E-1],"categories":[],"categories_nodes":[],"categories_segments":[],"categories_sizes":[],"default_left":[0,0,0,0,0,0,0,0,0,0,0,0,0,0,0,0,0,0,0,0,0,0,0,0,0,0,0,0,0,0,0,0,0,0,0,0,0,0,0,0,0,0,0,0,0,0,0,0,0,0,0,0,0,0,0,0,0,0,0,0,0,0,0,0,0,0,0,0,0,0,0,0,0,0,0,0,0],"id":3,"left_children":[1,3,5,7,-1,9,11,13,15,17,19,21,23,25,27,29,31,33,35,37,39,-1,41,43,-1,45,47,-1,-1,49,51,53,55,57,59,61,63,65,67,-1,-1,69,71,73,75,-1,-1,-1,-1,-1,-1,-1,-1,-1,-1,-1,-1,-1,-1,-1,-1,-1,-1,-1,-1,-1,-1,-1,-1,-1,-1,-1,-1,-1,-1,-1,-1],"loss_changes":[4.708334E1,1.3309769E1,5.119857E1,1.2784359E1,0E0,2.5593023E1,1.368684E1,8.67252E0,5.5172234E0,5.911175E0,7.0901723E0,1.3679602E1,5.8974304E0,3.5988197E0,1.1204052E-1,1.6162338E0,1.7340555E0,2.8349915E0,6.0076146E0,5.994297E0,9.723568E-1,0E0,4.90693E0,3.5167732E0,0E0,1.14177704E-1,1.8208599E0,0E0,0E0,2.1559348E0,6.8257356E-1,2.9443827E0,4.4884753E0,7.824422E-1,2.5075035E0,1.386013E1,4.0684757E0,4.044597E0,6.202712E0,0E0,0E0,2.90887E0,4.6074047E0,3.712349E-1,3.8554156E0,0E0,0E0,0E0,0E0,0E0,0E0,0E0,0E0,0E0,0E0,0E0,0E0,0E0,0E0,0E0,0E0,0E0,0E0,0E0,0E0,0E0,0E0,0E0,0E0,0E0,0E0,0E0,0E0,0E0,0E0,0E0,0E0],"parents":[2147483647,0,0,1,1,2,2,3,3,5,5,6,6,7,7,8,8,9,9,10,10,11,11,12,12,13,13,14,14,15,15,16,16,17,17,18,18,19,19,20,20,22,22,23,23,25,25,26,26,29,29,30,30,31,31,32,32,33,33,34,34,35,35,36,36,37,37,38,38,41,41,42,42,43,43,44,44],"right_children":[2,4,6,8,-1,10,12,14,16,18,20,22,24,26,28,30,32,34,36,38,40,-1,42,44,-1,46,48,-1,-1,50,52,54,56,58,60,62,64,66,68,-1,-1,70,72,74,76,-1,-1,-1,-1,-1,-1,-1,-1,-1,-1,-1,-1,-1,-1,-1,-1,-1,-1,-1,-1,-1,-1,-1,-1,-1,-1,-1,-1,-1,-1,-1,-1],"split_conditions":[6.5E0,6.023855E0,9.203592E0,5.5E0,2.1361153E-1,3.49E1,3.5700542E1,4.08E1,2.58E1,1E0,5.12E1,9.5E0,4.98E1,5E0,4.7405734E0,2E0,3.7E1,1.89E1,7.406133E0,8.55243E0,8.5E0,2.0729862E-1,1.15E1,2E0,-3.3745874E-2,2.78E1,2.43E1,-7.364469E-2,-1.459177E-2,1E0,6E0,2E0,4.05E1,1.81E1,8.55243E0,7.0024786E0,2.84E1,2E0,9E0,1.5606748E-1,2.425533E-2,2.07E1,2.71E1,4.47E1,3.8E1,1.6780077E-1,1.02210395E-1,9.742728E-3,8.827551E-2,-6.209537E-2,7.671519E-2,-4.4009746E-3,-7.7502325E-2,3.3861768E-2,-7.860281E-2,1.4077875E-1,-6.7982883E-3,-1.36439195E-2,6.317841E-2,-5.751398E-2,-2.6193356E-2,-2.751249E-3,2.396727E-1,-6.195364E-2,6.0973503E-3,-2.8875677E-2,2.5987804E-2,2.2236851E-1,3.3378925E-2,-8.809291E-2,1.2790697E-2,1.7127924E-1,-3.453483E-3,1.9502898E-1,6.624408E-2,-4.5789815E-2,1.13708936E-1],"split_indices":[3,3,3,3,0,0,0,0,0,2,0,3,0,3,3,1,0,0,3,3,3,0,3,1,0,0,0,0,0,2,3,2,0,0,3,3,0,1,3,0,0,0,0,0,0,0,0,0,0,0,0,0,0,0,0,0,0,0,0,0,0,0,0,0,0,0,0,0,0,0,0,0,0,0,0,0,0],"split_type":[0,0,0,0,0,0,0,0,0,0,0,0,0,0,0,0,0,0,0,0,0,0,0,0,0,0,0,0,0,0,0,0,0,0,0,0,0,0,0,0,0,0,0,0,0,0,0,0,0,0,0,0,0,0,0,0,0,0,0,0,0,0,0,0,0,0,0,0,0,0,0,0,0,0,0,0,0],"sum_hessian":[4.7970285E2,8.397129E1,3.9573157E2,7.897508E1,4.996209E0,3.3094275E2,6.478881E1,3.8230476E1,4.0744606E1,2.6513147E2,6.58113E1,4.6140556E1,1.8648252E1,3.5609295E1,2.6211812E0,1.0443938E1,3.0300669E1,2.1080975E2,5.4321697E1,6.123817E1,4.5731306E0,3.260153E0,4.2880405E1,1.7143496E1,1.5047565E0,1.7340082E1,1.8269213E1,1.5629563E0,1.0582248E0,2.6014674E0,7.8424706E0,2.3044693E1,7.2559752E0,3.7707586E0,2.07039E2,1.7936205E1,3.6385494E1,5.295563E1,8.2825365E0,3.4550374E0,1.1180933E0,3.7679337E1,5.201066E0,1.1741961E1,5.401535E0,9.082901E0,8.257181E0,3.9925404E0,1.4276672E1,1.0319213E0,1.569546E0,1.7086632E0,6.1338077E0,2.1397167E1,1.6475266E0,3.797086E0,3.458889E0,1.9591956E0,1.811563E0,1.7417517E2,3.2863827E1,1.617973E1,1.756475E0,2.268346E1,1.3702032E1,2.2421387E1,3.0534246E1,1.5959406E0,6.686596E0,2.10326E0,3.5576077E1,2.7331858E0,2.4678802E0,1.0130294E1,1.6116674E0,1.5522277E0,3.849307E0],"tree_param":{"num_deleted":"0","num_feature":"4","num_nodes":"77","size_leaf_vector":"1"}},{"base_weights":[8.633913E-3,6.050588E-1,-1.23900935E-1,4.9992174E-1,1.8966927E-1,-2.724588E-1,5.9749645E-1,8.494854E-1,1.4979154E-1,-3.8609543E-1,3.2007527E-1,2.8320837E-1,1.1279807E0,9.6006733E-1,-5.825057E-1,-6.7249316E-1,2.794357E-1,-4.6072638E-1,-1.00380026E-1,2.085578E-1,1.1928558E0,1.7714527E-1,1.3209157E-1,1.4212059E0,4.4136137E-1,1.243891E0,6.366694E-1,-1.3908769E-2,-7.13466E-2,-8.691298E-2,-2.3959188E-2,1.495671E-1,6.9905686E-1,-5.1140434E-1,-1.8833886E-1,3.0465144E-1,-3.1125614E-1,-1.3226712E-1,4.6933135E-1,1.378948E-1,2.2820136E-2,4.560469E-1,-2.4557403E-1,1.5375509E0,5.0826424E-1,8.8494785E-2,1.4960444E-1,1.4580968E-1,8.6115815E-2,8.930772E-3,7.694765E-2,2.614955E-2,-3.5881724E-2,1.233622E-1,-6.2921788E-3,-1.0275259E-2,-5.5324722E-2,1.9657111E-1,-3.9585568E-2,1.2130239E-4,2.0946136E-1,-5.8337923E-2,7.807766E-3,-3.164924E-2,8.041803E-2,6.0391065E-2,-1.5688654E-2,-4.0314153E-2,6.6077255E-2,-3.3707485E-2,5.7048596E-2,6.704913E-2,1.6797383E-1,1.1169727E-2,6.97488E-2,4.455084E-2,-4.4029336E-2],"categories":[],"categories_nodes":[],"categories_segments":[],"categories_sizes":[],"default_left":[0,0,0,0,0,0,0,0,0,0,0,0,0,0,0,0,0,0,0,0,0,0,0,0,0,0,0,0,0,0,0,0,0,0,0,0,0,0,0,0,0,0,0,0,0,0,0,0,0,0,0,0,0,0,0,0,0,0,0,0,0,0,0,0,0,0,0,0,0,0,0,0,0,0,0,0,0],"id":4,"left_children":[1,3,5,7,-1,9,11,13,15,17,19,21,23,25,27,29,31,33,35,37,39,-1,41,43,45,47,49,-1,-1,-1,-1,51,53,55,57,59,61,63,65,-1,-1,67,69,71,73,75,-1,-1,-1,-1,-1,-1,-1,-1,-1,-1,-1,-1,-1,-1,-1,-1,-1,-1,-1,-1,-1,-1,-1,-1,-1,-1,-1,-1,-1,-1,-1],"loss_changes":[3.775917E1,1.0845396E1,4.205363E1,9.868214E0,0E0,2.199503E1,1.0861553E1,6.99667E0,4.6668544E0,5.7751007E0,4.8919144E0,9.5374E0,4.3285007E0,2.7066307E0,1.0613799E-1,3.0383277E-1,1.9117272E0,2.8879051E0,5.0333486E0,4.332218E0,7.214966E-1,0E0,5.069914E0,1.0027504E0,3.1487932E0,3.2265854E-1,1.3752918E0,0E0,0E0,0E0,0E0,1.7739766E0,3.5286183E0,3.0499039E0,1.6644457E1,1.1024388E1,4.126438E0,3.9819348E0,2.4071813E0,0E0,0E0,4.1647787E0,1.6379609E0,6.497345E-1,1.7667049E-1,1.6439704E0,0E0,0E0,0E0,0E0,0E0,0E0,0E0,0E0,0E0,0E0,0E0,0E0,0E0,0E0,0E0,0E0,0E0,0E0,0E0,0E0,0E0,0E0,0E0,0E0,0E0,0E0,0E0,0E0,0E0,0E0,0E0],"parents":[2147483647,0,0,1,1,2,2,3,3,5,5,6,6,7,7,8,8,9,9,10,10,11,11,12,12,13,13,14,14,15,15,16,16,17,17,18,18,19,19,20,20,22,22,23,23,24,24,25,25,26,26,31,31,32,32,33,33,34,34,35,35,36,36,37,37,38,38,41,41,42,42,43,43,44,44,45,45],"right_children":[2,4,6,8,-1,10,12,14,16,18,20,22,24,26,28,30,32,34,36,38,40,-1,42,44,46,48,50,-1,-1,-1,-1,52,54,56,58,60,62,64,66,-1,-1,68,70,72,74,76,-1,-1,-1,-1,-1,-1,-1,-1,-1,-1,-1,-1,-1,-1,-1,-1,-1,-1,-1,-1,-1,-1,-1,-1,-1,-1,-1,-1,-1,-1,-1],"split_conditions":[6.5E0,6.023855E0,9.203592E0,5.5E0,1.8966927E-1,3.6705627E1,3.35E1,4.08E1,2.36E1,1E0,5.12E1,9.5E0,2E0,5E0,2E0,1E0,3.7E1,8.55243E0,7.406133E0,2E0,8.5E0,1.7714527E-1,2.68E1,4.47E1,1.15E1,2E0,2.43E1,-1.3908769E-2,-7.13466E-2,-8.691298E-2,-2.3959188E-2,3.38E1,4.05E1,7E0,9E0,7.0024786E0,2.84E1,8.55243E0,4.39E1,1.378948E-1,2.2820136E-2,9.658643E0,1.2E1,3.5700542E1,1.1E1,4.11E1,1.4960444E-1,1.4580968E-1,8.6115815E-2,8.930772E-3,7.694765E-2,2.614955E-2,-3.5881724E-2,1.233622E-1,-6.2921788E-3,-1.0275259E-2,-5.5324722E-2,1.9657111E-1,-3.9585568E-2,1.2130239E-4,2.0946136E-1,-5.8337923E-2,7.807766E-3,-3.164924E-2,8.041803E-2,6.0391065E-2,-1.5688654E-2,-4.0314153E-2,6.6077255E-2,-3.3707485E-2,5.7048596E-2,6.704913E-2,1.6797383E-1,1.1169727E-2,6.97488E-2,4.455084E-2,-4.4029336E-2],"split_indices":[3,3,3,3,0,0,0,0,0,2,0,3,1,3,1,2,0,3,3,1,3,0,0,0,3,1,0,0,0,0,0,0,0,3,3,3,0,3,0,0,0,3,3,0,3,0,0,0,0,0,0,0,0,0,0,0,0,0,0,0,0,0,0,0,0,0,0,0,0,0,0,0,0,0,0,0,0],"split_type":[0,0,0,0,0,0,0,0,0,0,0,0,0,0,0,0,0,0,0,0,0,0,0,0,0,0,0,0,0,0,0,0,0,0,0,0,0,0,0,0,0,0,0,0,0,0,0,0,0,0,0,0,0,0,0,0,0,0,0,0,0,0,0,0,0,0,0,0,0,0,0,0,0,0,0,0,0],"sum_hessian":[4.757311E2,8.58462E1,3.898849E2,8.066707E1,5.1791334E0,3.2382227E2,6.606262E1,3.9652515E1,4.1014553E1,2.7200528E2,5.1816994E1,4.244797E1,2.3614649E1,3.711589E1,2.5366247E0,5.015551E0,3.5999E1,2.1518489E2,5.682039E1,4.7044903E1,4.772094E0,2.9244723E0,3.9523502E1,1.5798106E1,7.8165417E0,1.8251507E1,1.8864386E1,1.0485168E0,1.4881079E0,2.7560058E0,2.2595453E0,2.8526703E1,7.472297E0,1.806899E2,3.4494995E1,1.9302065E1,3.7518326E1,2.0606058E1,2.6438845E1,3.6403568E0,1.1317369E0,2.116283E1,1.836067E1,1.3405537E1,2.3925703E0,6.669144E0,1.1473973E0,9.900662E0,8.350843E0,4.009945E0,1.4854441E1,2.3777391E1,4.749313E0,4.027699E0,3.4445984E0,1.710383E1,1.6358606E2,2.2866585E0,3.2208336E1,1.735986E1,1.9422047E0,2.1789944E1,1.5728383E1,1.7771866E1,2.8341916E0,2.1791332E1,4.6475115E0,3.8857996E0,1.727703E1,1.7037308E1,1.3233618E0,2.693866E0,1.071167E1,1.2865552E0,1.1060152E0,4.075228E0,2.5939162E0],"tree_param":{"num_deleted":"0","num_feature":"4","num_nodes":"77","size_leaf_vector":"1"}},{"base_weights":[1.0312292E-2,-1.3073997E-1,4.8299637E-1,4.8661938E-1,-2.741238E-1,3.552788E-1,1.536993E-1,1.0146651E0,2.9801777E-1,-3.7533852E-1,2.8504765E-1,1.894241E-1,7.995749E-1,1.1842026E0,2.3233745E-1,1.7276488E-1,1.5901695E-1,-1.5462679E-1,-4.6040937E-1,1.6582109E-1,1.4260533E-1,3.932585E-1,-2.4332185E-1,-1.4659218E-1,9.157481E-1,4.7743115E-1,1.2762208E0,9.9092305E-2,-5.4555863E-2,-1.6763385E-2,4.9361834E-1,-4.362563E-1,3.5929248E-1,-5.376324E-1,-1.8533498E-1,-5.429271E-2,6.1214584E-1,5.2382432E-2,1.0303112E0,-7.266151E-1,7.359149E-2,1.3062912E-2,-3.5393685E-2,1.2397747E0,7.0229185E-1,-3.4285165E-2,1.07588604E-1,1.4531854E-1,4.8701532E-2,-6.349096E-2,1.001777E-2,9.914019E-2,1.711911E-2,-5.1620915E-3,-6.0279783E-2,-7.474239E-2,-3.4625683E-2,2.0605437E-1,-3.9658148E-2,2.7223215E-2,-3.4448948E-2,9.802022E-2,-3.1077165E-2,9.616989E-2,-4.39061E-3,1.6331148E-1,2.5939533E-2,-1.1218557E-2,-7.859007E-2,-5.2664388E-2,2.9388607E-2,1.3431178E-1,2.6231809E-2,-4.4965852E-2,8.50682E-2],"categories":[],"categories_nodes":[],"categories_segments":[],"categories_sizes":[],"default_left":[0,0,0,0,0,0,0,0,0,0,0,0,0,0,0,0,0,0,0,0,0,0,0,0,0,0,0,0,0,0,0,0,0,0,0,0,0,0,0,0,0,0,0,0,0,0,0,0,0,0,0,0,0,0,0,0,0,0,0,0,0,0,0,0,0,0,0,0,0,0,0,0,0,0,0],"id":5,"left_children":[1,3,5,7,9,11,-1,13,15,17,19,21,23,25,27,29,-1,31,33,-1,35,37,39,41,43,45,47,-1,-1,49,51,53,-1,55,57,59,61,63,65,67,69,-1,-1,71,73,-1,-1,-1,-1,-1,-1,-1,-1,-1,-1,-1,-1,-1,-1,-1,-1,-1,-1,-1,-1,-1,-1,-1,-1,-1,-1,-1,-1,-1,-1],"loss_changes":[3.1538267E1,3.2387325E1,1.4087717E1,6.5729847E0,1.6878479E1,7.089238E0,0E0,2.0794697E0,8.187207E0,4.648163E0,8.758318E0,6.5226874E0,3.0360394E0,3.237362E-1,3.1406064E0,2.9749665E0,0E0,7.695891E1,3.7433853E0,0E0,3.9863315E0,1.0785002E1,3.7214215E0,2.6172465E-1,7.6511E-1,1.9644897E0,9.81657E-1,0E0,0E0,2.3504953E0,2.743207E0,4.2819796E0,0E0,5.3915024E0,2.035558E1,3.0354142E0,4.6235175E0,2.9813814E0,7.636635E0,2.6067019E-1,2.1873615E0,0E0,0E0,4.6446037E-1,3.2140217E0,0E0,0E0,0E0,0E0,0E0,0E0,0E0,0E0,0E0,0E0,0E0,0E0,0E0,0E0,0E0,0E0,0E0,0E0,0E0,0E0,0E0,0E0,0E0,0E0,0E0,0E0,0E0,0E0,0E0,0E0],"parents":[2147483647,0,0,1,1,2,2,3,3,4,4,5,5,7,7,8,8,9,9,10,10,11,11,12,12,13,13,14,14,15,15,17,17,18,18,20,20,21,21,22,22,23,23,24,24,25,25,26,26,29,29,30,30,31,31,33,33,34,34,35,35,36,36,37,37,38,38,39,39,40,40,43,43,44,44],"right_children":[2,4,6,8,10,12,-1,14,16,18,20,22,24,26,28,30,-1,32,34,-1,36,38,40,42,44,46,48,-1,-1,50,52,54,-1,56,58,60,62,64,66,68,70,-1,-1,72,74,-1,-1,-1,-1,-1,-1,-1,-1,-1,-1,-1,-1,-1,-1,-1,-1,-1,-1,-1,-1,-1,-1,-1,-1,-1,-1,-1,-1,-1,-1],"split_conditions":[3.49E1,6.5E0,1.0393358E1,5E0,9.203592E0,1E0,1.536993E-1,3.02E1,6.023855E0,7.5E0,9.5E0,4.11E1,3.5700542E1,3.8779435E0,2E0,1E0,1.5901695E-1,7.0024786E0,8.55243E0,1.6582109E-1,1E0,3.89E1,4.31E1,3.54E1,3.79E1,2.6E1,2.77E1,9.9092305E-2,-5.4555863E-2,2.3442755E1,2E0,7E0,3.5929248E-1,2.6372494E1,9E0,2.63E1,2E0,3.51E1,7.406133E0,5.7438874E0,6.617376E0,1.3062912E-2,-3.5393685E-2,1E1,3.81E1,-3.4285165E-2,1.07588604E-1,1.4531854E-1,4.8701532E-2,-6.349096E-2,1.001777E-2,9.914019E-2,1.711911E-2,-5.1620915E-3,-6.0279783E-2,-7.474239E-2,-3.4625683E-2,2.0605437E-1,-3.9658148E-2,2.7223215E-2,-3.4448948E-2,9.802022E-2,-3.1077165E-2,9.616989E-2,-4.39061E-3,1.6331148E-1,2.5939533E-2,-1.1218557E-2,-7.859007E-2,-5.2664388E-2,2.9388607E-2,1.3431178E-1,2.6231809E-2,-4.4965852E-2,8.50682E-2],"split_indices":[0,3,3,3,3,2,0,0,3,3,3,0,0,3,1,2,0,3,3,0,2,0,0,0,0,0,0,0,0,0,1,3,0,0,3,0,2,0,3,3,3,0,0,3,0,0,0,0,0,0,0,0,0,0,0,0,0,0,0,0,0,0,0,0,0,0,0,0,0,0,0,0,0,0,0],"split_type":[0,0,0,0,0,0,0,0,0,0,0,0,0,0,0,0,0,0,0,0,0,0,0,0,0,0,0,0,0,0,0,0,0,0,0,0,0,0,0,0,0,0,0,0,0,0,0,0,0,0,0,0,0,0,0,0,0,0,0,0,0,0,0,0,0,0,0,0,0,0,0,0,0,0,0],"sum_hessian":[4.7108084E2,3.6337158E2,1.07709236E2,6.803659E1,2.9533502E2,9.726078E1,1.0448458E1,1.6752659E1,5.128393E1,2.5034857E2,4.4986435E1,7.186143E1,2.5399353E1,1.3346631E1,3.4060268E0,4.7785606E1,3.4983258E0,7.04326E1,1.7991597E2,3.2278874E0,4.175855E1,4.8913273E1,2.2948154E1,2.7489362E0,2.2650417E1,2.2503834E0,1.1096249E1,1.5857711E0,1.8202559E0,3.0636415E1,1.7149189E1,6.6331375E1,4.1012316E0,1.3973341E2,4.0182556E1,3.0044146E1,1.1714401E1,3.2568596E1,1.6344675E1,8.57638E0,1.4371776E1,1.3345815E0,1.4143546E0,7.0859103E0,1.5564507E1,1.1294237E0,1.1209595E0,8.376621E0,2.719627E0,4.1691475E0,2.6467268E1,5.925783E0,1.1223406E1,2.0438246E1,4.5893127E1,6.527333E1,7.446008E1,2.7019892E0,3.7480568E1,1.4166325E1,1.5877822E1,8.3302555E0,3.3841465E0,2.2579165E0,3.031068E1,8.54481E0,7.7998657E0,1.009221E0,7.567158E0,3.4851563E0,1.088662E1,6.070051E0,1.0158592E0,1.5444812E0,1.4020025E1],"tree_param":{"num_deleted":"0","num_feature":"4","num_nodes":"75","size_leaf_vector":"1"}},{"base_weights":[1.1564228E-2,-1.17826596E-1,4.31723E-1,4.4072893E-1,-2.5191408E-1,3.1794733E-1,1.3586651E-1,5.039564E-1,-7.261695E-1,-3.4767428E-1,2.5925228E-1,1.7089131E-1,7.012972E-1,9.6163857E-1,3.318952E-1,-8.5080944E-2,-2.0195669E-2,-4.1732824E-1,-8.6708374E-2,1.5238816E-1,1.2829658E-1,3.5368675E-1,-2.2719516E-1,-1.3864334E-1,8.0046767E-1,7.6837415E-1,1.6833054E-1,2.149853E-1,1.4697914E-1,2.3224427E-1,-4.3733522E-1,-5.661064E-1,6.828963E-2,-4.9581874E-2,5.38412E-1,1.0074977E0,8.301228E-2,-6.891655E-1,6.414428E-2,1.2260699E-2,-3.371042E-2,6.7628086E-1,1.4283398E-1,9.564268E-2,-9.728676E-3,-3.2713678E-2,3.313924E-2,3.833268E-2,-2.190247E-2,-5.0555374E-2,-2.6946673E-2,-5.72267E-3,-8.99989E-2,5.768422E-2,-8.22704E-3,2.4351895E-2,-3.186471E-2,8.505629E-2,-2.9086685E-2,2.8327232E-2,1.347494E-1,-1.8649342E-2,7.0032425E-2,-1.0696097E-2,-7.47013E-2,-4.9871884E-2,2.631118E-2,8.474135E-2,-1.768541E-4],"categories":[],"categories_nodes":[],"categories_segments":[],"categories_sizes":[],"default_left":[0,0,0,0,0,0,0,0,0,0,0,0,0,0,0,0,0,0,0,0,0,0,0,0,0,0,0,0,0,0,0,0,0,0,0,0,0,0,0,0,0,0,0,0,0,0,0,0,0,0,0,0,0,0,0,0,0,0,0,0,0,0,0,0,0,0,0,0,0],"id":6,"left_children":[1,3,5,7,9,11,-1,13,15,17,19,21,23,25,27,-1,-1,29,31,-1,33,35,37,39,41,43,-1,45,-1,47,49,51,53,55,57,59,61,63,65,-1,-1,67,-1,-1,-1,-1,-1,-1,-1,-1,-1,-1,-1,-1,-1,-1,-1,-1,-1,-1,-1,-1,-1,-1,-1,-1,-1,-1,-1],"loss_changes":[2.5465366E1,2.6938469E1,1.1198784E1,5.5089273E0,1.4260614E1,5.491129E0,0E0,4.93454E0,8.9037895E-2,4.403511E0,7.463747E0,5.4112463E0,2.3827524E0,1.1753883E0,6.3373613E0,0E0,0E0,2.6036224E0,3.9559667E0,0E0,3.1636336E0,8.87035E0,3.2289128E0,2.3484933E-1,9.4755936E-1,2.6654053E0,0E0,3.0444543E0,0E0,5.206968E-1,2.006607E0,2.1552525E0,3.1661112E0,2.5150998E0,3.6366103E0,3.2438202E0,6.2649918E0,2.3117304E-1,1.8587797E0,0E0,0E0,2.599266E0,0E0,0E0,0E0,0E0,0E0,0E0,0E0,0E0,0E0,0E0,0E0,0E0,0E0,0E0,0E0,0E0,0E0,0E0,0E0,0E0,0E0,0E0,0E0,0E0,0E0,0E0,0E0],"parents":[2147483647,0,0,1,1,2,2,3,3,4,4,5,5,7,7,8,8,9,9,10,10,11,11,12,12,13,13,14,14,17,17,18,18,20,20,21,21,22,22,23,23,24,24,25,25,27,27,29,29,30,30,31,31,32,32,33,33,34,34,35,35,36,36,37,37,38,38,41,41],"right_children":[2,4,6,8,10,12,-1,14,16,18,20,22,24,26,28,-1,-1,30,32,-1,34,36,38,40,42,44,-1,46,-1,48,50,52,54,56,58,60,62,64,66,-1,-1,68,-1,-1,-1,-1,-1,-1,-1,-1,-1,-1,-1,-1,-1,-1,-1,-1,-1,-1,-1,-1,-1,-1,-1,-1,-1,-1,-1],"split_conditions":[3.49E1,6.5E0,1.0393358E1,3.38E1,9.203592E0,1E0,1.3586651E-1,5E0,3.44E1,1E0,9.5E0,4.11E1,3.5700542E1,4.7405734E0,6.023855E0,-8.5080944E-2,-2.0195669E-2,1.95E1,2.44E1,1.5238816E-1,1E0,7E0,4.31E1,3.54E1,4.98E1,4.5E0,1.6833054E-1,2.3442755E1,1.4697914E-1,8.218065E0,8.218065E0,2.17E1,2.59E1,2.63E1,2E0,3.76E1,8.55243E0,5.7438874E0,6.617376E0,1.2260699E-2,-3.371042E-2,4.24E1,1.4283398E-1,9.564268E-2,-9.728676E-3,-3.2713678E-2,3.313924E-2,3.833268E-2,-2.190247E-2,-5.0555374E-2,-2.6946673E-2,-5.72267E-3,-8.99989E-2,5.768422E-2,-8.22704E-3,2.4351895E-2,-3.186471E-2,8.505629E-2,-2.9086685E-2,2.8327232E-2,1.347494E-1,-1.8649342E-2,7.0032425E-2,-1.0696097E-2,-7.47013E-2,-4.9871884E-2,2.631118E-2,8.474135E-2,-1.768541E-4],"split_indices":[0,3,3,0,3,2,0,3,0,2,3,0,0,3,3,0,0,0,0,0,2,3,0,0,0,3,0,0,0,3,3,0,0,0,2,0,3,3,3,0,0,0,0,0,0,0,0,0,0,0,0,0,0,0,0,0,0,0,0,0,0,0,0,0,0,0,0,0,0],"split_type":[0,0,0,0,0,0,0,0,0,0,0,0,0,0,0,0,0,0,0,0,0,0,0,0,0,0,0,0,0,0,0,0,0,0,0,0,0,0,0,0,0,0,0,0,0,0,0,0,0,0,0,0,0,0,0,0,0,0,0,0,0,0,0,0,0,0,0,0,0],"sum_hessian":[4.664817E2,3.5719925E2,1.0928244E2,6.870683E1,2.8849243E2,9.85314E1,1.0751037E1,6.571428E1,2.992551E0,2.4324379E2,4.5248642E1,7.225832E1,2.6273073E1,1.6700928E1,4.9013355E1,1.9143593E0,1.0781918E0,1.9152501E2,5.1718773E1,3.2478437E0,4.2000797E1,4.9596073E1,2.2662252E1,2.7324128E0,2.354066E1,1.4801708E1,1.8992184E0,4.5524956E1,3.4884E0,5.4057817E0,1.8611923E2,1.1988092E1,3.9730682E1,2.9907978E1,1.2092819E1,1.3723924E1,3.587215E1,8.236428E0,1.4425824E1,1.3446071E0,1.3878058E0,2.1387524E1,2.153138E0,1.2073958E1,2.7277496E0,7.7273707E0,3.7797585E1,4.162692E0,1.2430896E0,1.3090883E2,5.5210407E1,5.2134805E0,6.774612E0,8.428864E0,3.1301817E1,1.4360068E1,1.554791E1,8.767105E0,3.3257134E0,4.97016E0,8.753764E0,2.5456333E1,1.0415817E1,1.001896E0,7.2345324E0,3.3741348E0,1.1051689E1,1.6877928E1,4.509595E0],"tree_param":{"num_deleted":"0","num_feature":"4","num_nodes":"69","size_leaf_vector":"1"}},{"base_weights":[1.1635E-2,-1.0702467E-1,3.883271E-1,3.969171E-1,-2.3147178E-1,2.8617722E-1,1.2147403E0,4.5425138E-1,-6.984786E-1,-3.215326E-1,2.3634319E-1,1.5425411E-1,6.2256426E-1,1.3780727E0,6.428133E-1,7.3695374E-1,2.3025143E-1,-8.2133695E-2,-1.9258816E-2,-1.0632776E-1,-4.057423E-1,1.4145531E-1,1.1554712E-1,3.1926414E-1,-2.1227917E-1,-1.31217E-1,7.089785E-1,1.554952E-1,4.501947E-2,6.831306E-2,1.1972185E-1,1.0256494E0,4.3772385E-1,3.7330747E-1,-3.417125E-1,-3.7794906E-1,2.948271E-1,-4.8036763E-1,-1.4725083E-1,9.6085835E-3,7.2133017E-1,2.9482855E-2,8.410984E-1,-6.535813E-2,5.5753257E-2,1.1508926E-2,-3.2110225E-2,5.9529924E-1,1.2994565E-1,-3.1226194E-3,1.413774E-2,6.6596135E-2,1.5106149E-1,1.5511311E-2,1.223617E-1,-7.1061724E-3,8.132151E-2,-7.451257E-2,1.21121906E-1,-1.3274503E-3,-5.4309726E-2,-6.938761E-2,-2.913014E-2,1.8719181E-1,-3.5129894E-2,-8.879341E-2,8.784361E-3,1.3430095E-1,-2.7601799E-2,8.480292E-2,-5.9837387E-3,1.3014166E-1,2.1707436E-2,-4.721001E-2,2.3594264E-2,3.4100167E-2,1.0780994E-1],"categories":[],"categories_nodes":[],"categories_segments":[],"categories_sizes":[],"default_left":[0,0,0,0,0,0,0,0,0,0,0,0,0,0,0,0,0,0,0,0,0,0,0,0,0,0,0,0,0,0,0,0,0,0,0,0,0,0,0,0,0,0,0,0,0,0,0,0,0,0,0,0,0,0,0,0,0,0,0,0,0,0,0,0,0,0,0,0,0,0,0,0,0,0,0,0,0],"id":7,"left_children":[1,3,5,7,9,11,13,15,17,19,21,23,25,27,29,31,33,-1,-1,35,37,-1,39,41,43,45,47,-1,-1,49,-1,51,53,55,57,59,-1,61,63,65,67,69,71,-1,73,-1,-1,75,-1,-1,-1,-1,-1,-1,-1,-1,-1,-1,-1,-1,-1,-1,-1,-1,-1,-1,-1,-1,-1,-1,-1,-1,-1,-1,-1,-1,-1],"loss_changes":[2.0759556E1,2.2246319E1,9.04369E0,4.734189E0,1.2038571E1,4.355796E0,2.2859192E-1,4.1007605E0,8.372307E-2,4.279381E0,6.4421988E0,4.506381E0,1.9123306E0,6.79513E-1,1.3592732E0,2.0871449E0,3.3251266E0,0E0,0E0,5.7897003E1,3.2294235E0,0E0,2.7645626E0,7.6880484E0,2.8022327E0,2.1077347E-1,9.189091E-1,0E0,0E0,2.828726E-2,0E0,1.4705105E0,3.3994348E0,6.262038E0,6.1277676E0,3.8313017E0,0E0,5.1389923E0,1.7042276E1,2.7302742E0,4.3479795E0,2.5241694E0,4.938139E0,0E0,1.5826682E0,0E0,0E0,2.454795E0,0E0,0E0,0E0,0E0,0E0,0E0,0E0,0E0,0E0,0E0,0E0,0E0,0E0,0E0,0E0,0E0,0E0,0E0,0E0,0E0,0E0,0E0,0E0,0E0,0E0,0E0,0E0,0E0,0E0],"parents":[2147483647,0,0,1,1,2,2,3,3,4,4,5,5,6,6,7,7,8,8,9,9,10,10,11,11,12,12,13,13,14,14,15,15,16,16,19,19,20,20,22,22,23,23,24,24,25,25,26,26,29,29,31,31,32,32,33,33,34,34,35,35,37,37,38,38,39,39,40,40,41,41,42,42,44,44,47,47],"right_children":[2,4,6,8,10,12,14,16,18,20,22,24,26,28,30,32,34,-1,-1,36,38,-1,40,42,44,46,48,-1,-1,50,-1,52,54,56,58,60,-1,62,64,66,68,70,72,-1,74,-1,-1,76,-1,-1,-1,-1,-1,-1,-1,-1,-1,-1,-1,-1,-1,-1,-1,-1,-1,-1,-1,-1,-1,-1,-1,-1,-1,-1,-1,-1,-1],"split_conditions":[3.49E1,6.5E0,1.0393358E1,3.38E1,9.203592E0,1E0,2E0,2E0,3.44E1,7.5E0,9.5E0,4.11E1,3.5700542E1,4.47E1,1.15E1,2.73E1,3.02E1,-8.2133695E-2,-1.9258816E-2,7.0024786E0,8.55243E0,1.4145531E-1,1.15E1,3.89E1,4.31E1,3.54E1,4.98E1,1.554952E-1,4.501947E-2,3.953339E1,1.1972185E-1,2.51E1,3.26E1,2.58E1,3.35E1,7E0,2.948271E-1,2.6372494E1,9E0,2.07E1,2.71E1,3.51E1,7.406133E0,-6.535813E-2,6.617376E0,1.1508926E-2,-3.2110225E-2,8.55243E0,1.2994565E-1,-3.1226194E-3,1.413774E-2,6.6596135E-2,1.5106149E-1,1.5511311E-2,1.223617E-1,-7.1061724E-3,8.132151E-2,-7.451257E-2,1.21121906E-1,-1.3274503E-3,-5.4309726E-2,-6.938761E-2,-2.913014E-2,1.8719181E-1,-3.5129894E-2,-8.879341E-2,8.784361E-3,1.3430095E-1,-2.7601799E-2,8.480292E-2,-5.9837387E-3,1.3014166E-1,2.1707436E-2,-4.721001E-2,2.3594264E-2,3.4100167E-2,1.0780994E-1],"split_indices":[0,3,3,0,3,2,1,1,0,3,3,0,0,0,3,0,0,0,0,3,3,0,3,0,0,0,0,0,0,0,0,0,0,0,0,3,0,0,3,0,0,0,3,0,3,0,0,3,0,0,0,0,0,0,0,0,0,0,0,0,0,0,0,0,0,0,0,0,0,0,0,0,0,0,0,0,0],"split_type":[0,0,0,0,0,0,0,0,0,0,0,0,0,0,0,0,0,0,0,0,0,0,0,0,0,0,0,0,0,0,0,0,0,0,0,0,0,0,0,0,0,0,0,0,0,0,0,0,0,0,0,0,0,0,0,0,0,0,0,0,0,0,0,0,0,0,0,0,0,0,0,0,0,0,0,0,0],"sum_hessian":[4.6250888E2,3.52261E2,1.1024788E2,6.932871E1,2.8293228E2,9.9317856E1,1.0930024E1,6.643665E1,2.8920622E0,2.3751924E2,4.541303E1,7.2387665E1,2.6930187E1,7.4055905E0,3.5244331E0,2.8357584E1,3.8079067E1,1.8252441E0,1.066818E0,6.743813E1,1.7008112E2,3.227051E0,4.2185978E1,5.0004875E1,2.238279E1,2.7164497E0,2.4213737E1,5.6522923E0,1.7532983E0,2.2824607E0,1.2419726E0,1.3197277E1,1.5160306E1,3.0738316E1,7.3407526E0,6.2735806E1,4.70233E0,1.3131322E2,3.87679E1,3.677132E1,5.414658E0,3.283029E1,1.7174583E1,7.9141273E0,1.4468662E1,1.3540146E0,1.3624351E0,2.1988636E1,2.225103E0,1.2085764E0,1.0738842E0,8.939939E0,4.257339E0,1.2031202E1,3.1291032E0,1.570873E1,1.5029587E1,6.239949E0,1.1008031E0,1.9891802E1,4.2844006E1,6.0416336E1,7.089687E1,2.8079338E0,3.5959965E1,2.1184192E0,3.46529E1,3.122021E0,2.2926373E0,2.3942957E0,3.0435997E1,9.259033E0,7.9155507E0,3.2698429E0,1.1198819E1,1.5520219E1,6.4684157E0],"tree_param":{"num_deleted":"0","num_feature":"4","num_nodes":"77","size_leaf_vector":"1"}},{"base_weights":[1.3139806E-2,-1.0581316E-1,3.509627E-1,2.3899126E-1,-2.1290636E-1,1.7759979E-1,7.370768E-1,1.1024148E-1,3.1119123E-1,-3.664027E-1,1.0253837E-1,8.3132863E-1,5.682592E-2,5.1378566E-1,1.1267655E0,2.6838806E-1,-3.8902348E-1,-4.308381E-1,1.0096844E-1,1.6502596E-1,2.2582777E-2,1.2134749E0,4.4271875E-2,1.1181073E-2,1.5045747E-1,6.263338E-1,-5.231595E-2,1.2449366E0,5.5856293E-1,1.6557632E-1,1.3946383E-1,-7.006326E-1,-2.477395E-2,8.9304894E-2,-4.7101733E-1,8.589047E-1,-2.5614348E-1,-1.4721881E-1,4.6103397E-1,4.2827132E-1,1.6420911E-1,8.814933E-2,-4.1857073E-1,9.346308E-2,-6.945648E-1,4.9293002E-1,1.3324375E-1,1.3268724E-1,4.0498383E-2,-8.630721E-3,9.603717E-2,3.6850926E-2,-1.9715577E-2,-2.9193958E-2,-7.944822E-2,2.7656762E-2,-1.6424162E-2,8.215262E-2,-2.4901656E-2,-6.903491E-2,-3.352007E-2,1.2831281E-1,5.413648E-2,-9.1488E-2,2.4499971E-2,1.3733151E-2,-3.752705E-2,1.4742418E-1,3.0048212E-2,8.767724E-2,-3.861822E-2,2.3463507E-4,-7.754455E-2,-3.1491145E-2,2.4139535E-2,-8.281798E-2,-2.698198E-2,1.1353566E-1,2.9649466E-2],"categories":[],"categories_nodes":[],"categories_segments":[],"categories_sizes":[],"default_left":[0,0,0,0,0,0,0,0,0,0,0,0,0,0,0,0,0,0,0,0,0,0,0,0,0,0,0,0,0,0,0,0,0,0,0,0,0,0,0,0,0,0,0,0,0,0,0,0,0,0,0,0,0,0,0,0,0,0,0,0,0,0,0,0,0,0,0,0,0,0,0,0,0,0,0,0,0,0,0],"id":8,"left_children":[1,3,5,7,9,11,13,15,-1,17,19,21,23,25,27,29,31,33,35,-1,37,39,41,43,-1,45,-1,47,49,51,-1,53,55,57,59,61,63,65,67,69,-1,-1,71,73,75,77,-1,-1,-1,-1,-1,-1,-1,-1,-1,-1,-1,-1,-1,-1,-1,-1,-1,-1,-1,-1,-1,-1,-1,-1,-1,-1,-1,-1,-1,-1,-1,-1,-1],"loss_changes":[1.8465431E1,1.26032095E1,7.8786144E0,2.9628822E1,1.2621842E1,6.576641E0,2.619711E0,6.3097057E0,0E0,5.31509E0,1.0586995E1,3.8590527E0,4.7336307E0,3.2695427E0,1.4745712E-1,6.748634E0,2.1748495E0,3.261078E0,6.179957E0,0E0,6.2211328E0,2.2312431E0,2.4187834E0,4.1703196E0,0E0,1.5280523E0,0E0,1.2178326E-1,1.1128415E0,4.222014E0,0E0,1.6590357E-1,4.6323967E-1,3.1489308E0,4.0326424E0,2.8627253E-1,5.419473E0,3.9668102E0,3.3496923E0,1.9574373E0,0E0,0E0,6.15387E-1,3.95426E0,2.0220923E-1,2.3255777E0,0E0,0E0,0E0,0E0,0E0,0E0,0E0,0E0,0E0,0E0,0E0,0E0,0E0,0E0,0E0,0E0,0E0,0E0,0E0,0E0,0E0,0E0,0E0,0E0,0E0,0E0,0E0,0E0,0E0,0E0,0E0,0E0,0E0],"parents":[2147483647,0,0,1,1,2,2,3,3,4,4,5,5,6,6,7,7,9,9,10,10,11,11,12,12,13,13,14,14,15,15,16,16,17,17,18,18,20,20,21,21,22,22,23,23,25,25,27,27,28,28,29,29,31,31,32,32,33,33,34,34,35,35,36,36,37,37,38,38,39,39,42,42,43,43,44,44,45,45],"right_children":[2,4,6,8,10,12,14,16,-1,18,20,22,24,26,28,30,32,34,36,-1,38,40,42,44,-1,46,-1,48,50,52,-1,54,56,58,60,62,64,66,68,70,-1,-1,72,74,76,78,-1,-1,-1,-1,-1,-1,-1,-1,-1,-1,-1,-1,-1,-1,-1,-1,-1,-1,-1,-1,-1,-1,-1,-1,-1,-1,-1,-1,-1,-1,-1,-1,-1],"split_conditions":[1E0,7E0,3.35E1,6.617376E0,8.55243E0,5.5E0,8.55243E0,6.5E0,3.1119123E-1,3.863352E1,9E0,2.79E1,1.15E1,8.5E0,2E0,6.023855E0,2.96E1,2.09E1,7.406133E0,1.6502596E-1,3.45E1,2.4E1,3.8779435E0,3.17E1,1.5045747E-1,4.98E1,-5.231595E-2,4.61E1,9.658643E0,6E0,1.3946383E-1,2E0,3.24E1,7.5E0,2.6372494E1,3.9942883E1,2E0,2.63E1,3.52E1,2.2433569E1,1.6420911E-1,8.814933E-2,2.96E1,2.44E1,3.28E1,3.52E1,1.3324375E-1,1.3268724E-1,4.0498383E-2,-8.630721E-3,9.603717E-2,3.6850926E-2,-1.9715577E-2,-2.9193958E-2,-7.944822E-2,2.7656762E-2,-1.6424162E-2,8.215262E-2,-2.4901656E-2,-6.903491E-2,-3.352007E-2,1.2831281E-1,5.413648E-2,-9.1488E-2,2.4499971E-2,1.3733151E-2,-3.752705E-2,1.4742418E-1,3.0048212E-2,8.767724E-2,-3.861822E-2,2.3463507E-4,-7.754455E-2,-3.1491145E-2,2.4139535E-2,-8.281798E-2,-2.698198E-2,1.1353566E-1,2.9649466E-2],"split_indices":[2,3,0,3,3,3,3,3,0,0,3,0,3,3,2,3,0,0,3,0,0,0,3,0,0,0,0,0,3,3,0,1,0,3,0,0,1,0,0,0,0,0,0,0,0,0,0,0,0,0,0,0,0,0,0,0,0,0,0,0,0,0,0,0,0,0,0,0,0,0,0,0,0,0,0,0,0,0,0],"split_type":[0,0,0,0,0,0,0,0,0,0,0,0,0,0,0,0,0,0,0,0,0,0,0,0,0,0,0,0,0,0,0,0,0,0,0,0,0,0,0,0,0,0,0,0,0,0,0,0,0,0,0,0,0,0,0,0,0,0,0,0,0,0,0,0,0,0,0,0,0,0,0,0,0,0,0,0,0,0,0],"sum_hessian":[4.5758603E2,3.3893002E2,1.1865602E2,8.002963E1,2.589004E2,8.2896126E1,3.5759895E1,7.759078E1,2.4388533E0,1.7404704E2,8.485334E1,1.2009165E1,7.088696E1,2.4207489E1,1.1552407E1,5.927677E1,1.8314009E1,1.5302762E2,2.1019419E1,3.2034585E0,8.164988E1,7.719341E0,4.289824E0,6.969726E1,1.189703E0,2.2194519E1,2.01297E0,8.577506E0,2.9749017E0,5.53693E1,3.9074697E0,9.372501E0,8.941507E0,1.0885531E1,1.4214209E2,6.281784E0,1.4737634E1,5.9335068E1,2.2314814E1,3.4317477E0,4.2875934E0,1.2052195E0,3.0846045E0,6.3196793E1,6.500465E0,2.0095911E1,2.0986087E0,7.2869763E0,1.2905294E0,1.4434639E0,1.5314378E0,3.5495293E1,1.9874008E1,2.5179853E0,6.854516E0,2.5179853E0,6.423522E0,2.988768E0,7.8967633E0,5.279689E1,8.93452E1,1.3874091E0,4.894375E0,6.0109067E0,8.7267275E0,2.657458E1,3.276049E1,1.9330996E0,2.0381714E1,2.16372E0,1.2680278E0,1.8711251E0,1.2134793E0,1.6505037E1,4.6691753E1,4.222375E0,2.2780902E0,3.5865576E0,1.6509354E1],"tree_param":{"num_deleted":"0","num_feature":"4","num_nodes":"79","size_leaf_vector":"1"}},{"base_weights":[1.4477625E-2,-9.515182E-2,3.190395E-1,2.1847442E-1,-1.9457796E-1,1.6196571E-1,6.636341E-1,1.0005739E-1,2.603093E-1,-2.93748E-1,2.3029998E-1,7.570632E-1,5.1156856E-2,4.6323818E-1,1.0122355E0,2.4347584E-1,-3.639185E-1,-3.6009458E-1,8.244647E-3,1.3518204E-1,1.3517068E-1,1.0965644E0,4.164269E-2,8.097898E-3,1.3764274E-1,5.637532E-1,-4.985772E-2,1.1605246E-1,5.890975E-1,1.4849252E-1,1.3103941E-1,-6.0571563E-1,7.081632E-2,-6.5646034E-1,-2.831818E-1,4.597741E-1,-1.3507755E-1,-1.1171965E-2,7.919289E-1,3.9180553E-1,1.4784665E-1,8.267731E-2,-3.999563E-1,8.344557E-2,-6.621849E-1,4.40632E-1,1.232154E-1,7.2227195E-2,1.581258E-2,3.283454E-2,-1.8030087E-2,-1.9480279E-2,-7.284657E-2,7.850834E-2,-1.7127747E-2,-4.1470956E-2,-8.3340175E-2,2.8559932E-1,-3.721646E-2,-5.33995E-2,8.2523294E-2,-6.349485E-2,5.335468E-3,1.0344724E-2,-5.639198E-2,-3.1494077E-2,1.0029298E-1,7.99919E-2,-3.6767747E-2,2.1933895E-4,-7.472401E-2,3.6200583E-3,1.2452575E-1,-7.9398565E-2,-2.5398806E-2,5.660848E-2,-2.4288507E-2],"categories":[],"categories_nodes":[],"categories_segments":[],"categories_sizes":[],"default_left":[0,0,0,0,0,0,0,0,0,0,0,0,0,0,0,0,0,0,0,0,0,0,0,0,0,0,0,0,0,0,0,0,0,0,0,0,0,0,0,0,0,0,0,0,0,0,0,0,0,0,0,0,0,0,0,0,0,0,0,0,0,0,0,0,0,0,0,0,0,0,0,0,0,0,0,0,0],"id":9,"left_children":[1,3,5,7,9,11,13,15,-1,17,19,21,23,25,27,29,31,33,35,-1,37,39,41,43,-1,45,-1,-1,47,49,-1,51,53,55,57,59,61,63,65,67,-1,-1,69,71,73,75,-1,-1,-1,-1,-1,-1,-1,-1,-1,-1,-1,-1,-1,-1,-1,-1,-1,-1,-1,-1,-1,-1,-1,-1,-1,-1,-1,-1,-1,-1,-1],"loss_changes":[1.52083845E1,1.0489706E1,6.4174995E0,2.26453E1,1.0808553E1,5.508868E0,2.1453094E0,5.300186E0,0E0,4.1527615E0,5.0237546E0,3.1442752E0,4.0972233E0,2.756557E0,1.20495796E-1,5.928919E0,2.0289533E0,3.6852875E0,2.5396183E0,0E0,4.4391913E0,1.8073559E0,2.156521E0,3.6276853E0,0E0,1.4035249E0,0E0,0E0,1.9323742E-1,3.407025E0,0E0,4.7575665E-1,1.4569658E0,1.1187859E0,3.9218796E1,3.8731427E0,2.8438826E0,2.509066E0,2.2808585E0,1.681762E0,0E0,0E0,5.664822E-1,3.4939587E0,1.8892288E-1,1.9836636E0,0E0,0E0,0E0,0E0,0E0,0E0,0E0,0E0,0E0,0E0,0E0,0E0,0E0,0E0,0E0,0E0,0E0,0E0,0E0,0E0,0E0,0E0,0E0,0E0,0E0,0E0,0E0,0E0,0E0,0E0,0E0],"parents":[2147483647,0,0,1,1,2,2,3,3,4,4,5,5,6,6,7,7,9,9,10,10,11,11,12,12,13,13,14,14,15,15,16,16,17,17,18,18,20,20,21,21,22,22,23,23,25,25,28,28,29,29,31,31,32,32,33,33,34,34,35,35,36,36,37,37,38,38,39,39,42,42,43,43,44,44,45,45],"right_children":[2,4,6,8,10,12,14,16,-1,18,20,22,24,26,28,30,32,34,36,-1,38,40,42,44,-1,46,-1,-1,48,50,-1,52,54,56,58,60,62,64,66,68,-1,-1,70,72,74,76,-1,-1,-1,-1,-1,-1,-1,-1,-1,-1,-1,-1,-1,-1,-1,-1,-1,-1,-1,-1,-1,-1,-1,-1,-1,-1,-1,-1,-1,-1,-1],"split_conditions":[1E0,7E0,3.35E1,6.617376E0,9.203592E0,5.5E0,8.55243E0,6.5E0,2.603093E-1,3.623875E1,9.5E0,2.79E1,1.15E1,8.5E0,2E0,6.023855E0,3.22E1,7.0024786E0,7.406133E0,1.3518204E-1,1.15E1,2.4E1,3.8779435E0,3.17E1,1.3764274E-1,4.98E1,-4.985772E-2,1.1605246E-1,4.1E1,6E0,1.3103941E-1,2E0,3.39E1,2.73E1,7.5E0,3.89E1,7.6717615E0,1.1E1,2.41E1,2.2433569E1,1.4784665E-1,8.267731E-2,2.96E1,3.1359507E1,3.28E1,4.24E1,1.232154E-1,7.2227195E-2,1.581258E-2,3.283454E-2,-1.8030087E-2,-1.9480279E-2,-7.284657E-2,7.850834E-2,-1.7127747E-2,-4.1470956E-2,-8.3340175E-2,2.8559932E-1,-3.721646E-2,-5.33995E-2,8.2523294E-2,-6.349485E-2,5.335468E-3,1.0344724E-2,-5.639198E-2,-3.1494077E-2,1.0029298E-1,7.99919E-2,-3.6767747E-2,2.1933895E-4,-7.472401E-2,3.6200583E-3,1.2452575E-1,-7.9398565E-2,-2.5398806E-2,5.660848E-2,-2.4288507E-2],"split_indices":[2,3,0,3,3,3,3,3,0,0,3,0,3,3,1,3,0,3,3,0,3,0,3,0,0,0,0,0,0,3,0,1,0,0,3,0,3,3,0,0,0,0,0,0,0,0,0,0,0,0,0,0,0,0,0,0,0,0,0,0,0,0,0,0,0,0,0,0,0,0,0,0,0,0,0,0,0],"split_type":[0,0,0,0,0,0,0,0,0,0,0,0,0,0,0,0,0,0,0,0,0,0,0,0,0,0,0,0,0,0,0,0,0,0,0,0,0,0,0,0,0,0,0,0,0,0,0,0,0,0,0,0,0,0,0,0,0,0,0,0,0,0,0,0,0,0,0,0,0,0,0,0,0,0,0,0,0],"sum_hessian":[4.5358237E2,3.3403238E2,1.1955001E2,8.011696E1,2.539154E2,8.312833E1,3.6421684E1,7.731934E1,2.7976177E0,2.0611507E2,4.7800343E1,1.213348E1,7.099484E1,2.4605745E1,1.181594E1,5.9425663E1,1.789368E1,1.6883115E2,3.728392E1,2.7045763E0,4.5095764E1,7.867311E0,4.266169E0,6.9735214E1,1.2596347E0,2.2652319E1,1.9534262E0,7.459195E0,4.3567452E0,5.5613777E1,3.8118863E0,1.12456255E1,6.6480546E0,3.323451E1,1.3559663E2,8.4511175E0,2.8832804E1,3.768219E1,7.4135737E0,3.476936E0,4.390375E0,1.2217542E0,3.0444148E0,6.347534E1,6.2598686E0,2.0529892E1,2.1224272E0,2.8119197E0,1.5448254E0,3.595011E1,1.9663666E1,3.1816971E0,8.063929E0,1.1151264E0,5.5329285E0,1.5458162E1,1.7776346E1,2.880516E0,1.3271613E2,2.148278E0,6.3028398E0,7.2446465E0,2.1588158E1,3.188358E1,5.7986116E0,1.1080992E0,6.3054743E0,2.2270005E0,1.2499357E0,1.8712353E0,1.1731795E0,6.198585E1,1.489491E0,4.0175548E0,2.2423136E0,1.7491335E1,3.0385568E0],"tree_param":{"num_deleted":"0","num_feature":"4","num_nodes":"77","size_leaf_vector":"1"}},{"base_weights":[1.5354088E-2,2.9665834E-1,-8.442216E-2,1.8632534E-1,2.717123E-1,-2.5263733E-1,2.2864014E-1,3.409332E-1,-4.1856134E-1,-3.269422E-1,1.8558408E-1,1.8433659E-1,1.4254074E-1,2.7034613E-1,1.321356E-1,-5.6738615E-1,-9.801867E-2,-4.8191074E-1,-2.4365892E-1,9.1370064E-1,3.6486268E-2,-2.04766E-1,3.5836238E-1,4.8832005E-1,4.4402275E-2,-2.017522E-1,-6.8258666E-2,4.8226617E-2,-2.832119E-1,-1.4800484E-2,-6.5206283E-1,1.3585435E-1,-3.6492866E-1,2.579309E-1,1.6211067E-1,-1.4057352E-1,6.857361E-1,-3.1432492E-1,2.0231879E-1,1.380562E-1,2.7702123E-1,5.858317E-2,-4.466121E-2,-4.1306358E-2,1.9419035E-2,-6.1687835E-2,5.535331E-2,-4.4922438E-2,9.4727855E-3,-4.490303E-2,1.9185667E-1,1.8270243E-2,-6.945837E-2,-2.6647136E-2,4.3159496E-2,-6.697382E-2,-2.4682065E-2,-2.6022058E-4,4.1277483E-2,-2.3643624E-2,6.668161E-2,3.0107755E-2,1.1230179E-1,-3.8978588E-2,3.801617E-2,8.6882055E-2,-1.9258823E-2,1.388026E-2,9.366674E-2],"categories":[],"categories_nodes":[],"categories_segments":[],"categories_sizes":[],"default_left":[0,0,0,0,0,0,0,0,0,0,0,0,0,0,0,0,0,0,0,0,0,0,0,0,0,0,0,0,0,0,0,0,0,0,0,0,0,0,0,0,0,0,0,0,0,0,0,0,0,0,0,0,0,0,0,0,0,0,0,0,0,0,0,0,0,0,0,0,0],"id":10,"left_children":[1,3,5,7,-1,9,11,13,15,17,19,-1,21,23,-1,25,27,29,31,33,35,37,39,41,43,45,-1,-1,47,49,51,53,55,57,-1,59,61,63,65,-1,67,-1,-1,-1,-1,-1,-1,-1,-1,-1,-1,-1,-1,-1,-1,-1,-1,-1,-1,-1,-1,-1,-1,-1,-1,-1,-1,-1,-1],"loss_changes":[1.2670836E1,3.1056273E1,1.761327E1,1.0814075E1,0E0,7.137103E0,1.6009142E1,5.9702187E0,1.0739093E0,2.2854328E0,3.45631E0,0E0,8.483499E0,4.2407413E0,0E0,5.345869E-1,1.073285E0,5.0816135E0,5.715974E0,2.0970879E0,3.2832935E0,2.0098236E0,5.4014683E0,4.26845E0,3.0675762E0,1.9855379E0,0E0,0E0,4.966616E-1,1.6079441E1,1.7926998E0,3.7491865E0,3.2034807E0,1.6255829E-1,0E0,1.9078152E0,6.8969464E-1,1.9706492E0,2.7631044E0,0E0,5.8589554E0,0E0,0E0,0E0,0E0,0E0,0E0,0E0,0E0,0E0,0E0,0E0,0E0,0E0,0E0,0E0,0E0,0E0,0E0,0E0,0E0,0E0,0E0,0E0,0E0,0E0,0E0,0E0,0E0],"parents":[2147483647,0,0,1,1,2,2,3,3,5,5,6,6,7,7,8,8,9,9,10,10,12,12,13,13,15,15,16,16,17,17,18,18,19,19,20,20,21,21,22,22,23,23,24,24,25,25,28,28,29,29,30,30,31,31,32,32,33,33,35,35,36,36,37,37,38,38,40,40],"right_children":[2,4,6,8,-1,10,12,14,16,18,20,-1,22,24,-1,26,28,30,32,34,36,38,40,42,44,46,-1,-1,48,50,52,54,56,58,-1,60,62,64,66,-1,68,-1,-1,-1,-1,-1,-1,-1,-1,-1,-1,-1,-1,-1,-1,-1,-1,-1,-1,-1,-1,-1,-1,-1,-1,-1,-1,-1,-1],"split_conditions":[7E0,6.617376E0,8.55243E0,6.5E0,2.717123E-1,3.85E1,9E0,6.023855E0,3.22E1,2.56E1,3.91652E1,1.8433659E-1,9.203592E0,5.5E0,1.321356E-1,2.49E1,3.39E1,7.5E0,2.76E1,3.89E1,4.98E1,3.45E1,9.5E0,3.91652E1,2.58E1,2.36E1,-6.8258666E-2,4.8226617E-2,3.953339E1,7.0024786E0,1.86E1,2.65E1,7.0024786E0,7.6717615E0,1.6211067E-1,2E0,1E0,2E0,3.725394E1,1.380562E-1,1.15E1,5.858317E-2,-4.466121E-2,-4.1306358E-2,1.9419035E-2,-6.1687835E-2,5.535331E-2,-4.4922438E-2,9.4727855E-3,-4.490303E-2,1.9185667E-1,1.8270243E-2,-6.945837E-2,-2.6647136E-2,4.3159496E-2,-6.697382E-2,-2.4682065E-2,-2.6022058E-4,4.1277483E-2,-2.3643624E-2,6.668161E-2,3.0107755E-2,1.1230179E-1,-3.8978588E-2,3.801617E-2,8.6882055E-2,-1.9258823E-2,1.388026E-2,9.366674E-2],"split_indices":[3,3,3,3,0,0,3,3,0,0,0,0,3,3,0,0,0,3,0,0,0,0,3,0,0,0,0,0,0,3,0,0,3,3,0,2,2,2,0,0,3,0,0,0,0,0,0,0,0,0,0,0,0,0,0,0,0,0,0,0,0,0,0,0,0,0,0,0,0],"split_type":[0,0,0,0,0,0,0,0,0,0,0,0,0,0,0,0,0,0,0,0,0,0,0,0,0,0,0,0,0,0,0,0,0,0,0,0,0,0,0,0,0,0,0,0,0,0,0,0,0,0,0,0,0,0,0,0,0,0,0,0,0,0,0,0,0,0,0,0,0],"sum_hessian":[4.4954956E2,1.171865E2,3.3236307E2,1.1310765E2,4.0788507E0,2.1632172E2,1.1604134E2,9.043023E1,2.2677422E1,1.8517702E2,3.1144701E1,4.841076E0,1.11200264E2,8.554689E1,4.883337E0,1.4961066E1,7.716356E0,6.3057335E1,1.2211968E2,4.4219565E0,2.6722744E1,4.2637665E1,6.85626E1,4.295034E1,4.2596554E1,4.2436123E0,1.0717453E1,1.4787409E0,6.2376146E0,1.712684E1,4.5930492E1,2.9543413E1,9.257627E1,3.002882E0,1.4190748E0,2.1612253E1,5.11049E0,3.377551E1,8.862153E0,3.8763773E0,6.4686226E1,3.9231922E1,3.7184193E0,1.0073513E1,3.252304E1,2.8567262E0,1.3868862E0,4.202865E0,2.0347495E0,1.4612626E1,2.5142148E0,2.0664003E0,4.3864094E1,1.2558199E1,1.6985212E1,2.4549398E1,6.802687E1,1.4859265E0,1.5169554E0,1.9950642E1,1.6616131E0,3.6171525E0,1.4933375E0,3.0860985E1,2.9145257E0,2.8507516E0,6.0114017E0,5.4480995E1,1.0205228E1],"tree_param":{"num_deleted":"0","num_feature":"4","num_nodes":"69","size_leaf_vector":"1"}},{"base_weights":[1.609125E-2,-8.299527E-2,2.8392896E-1,-1.6128707E-1,2.1468626E-1,1.4684665E-1,5.7848555E-1,5.426994E-1,-1.983258E-1,4.2665923E-1,-7.193699E-2,2.469602E-1,-3.9223212E-1,4.0673932E-1,8.744174E-1,-5.532926E-2,7.2095484E-1,-2.6397067E-1,-1.3642978E-2,1.6126017E-1,7.6582956E-1,-1.6937737E-1,8.114719E-2,5.537746E-1,-3.883735E-2,-9.904972E-2,-7.5406834E-2,4.9382028E-1,-4.63905E-2,2.5236417E-2,9.408648E-1,9.3853724E-1,-2.742058E-2,1.02384295E-2,-3.6953926E-1,1.2510781E-1,-8.247976E-2,7.9561345E-2,9.146305E-2,9.9216676E-1,4.248131E-1,-5.7506275E-1,-4.138913E-2,1.0109347E0,2.658009E-1,-3.146512E-1,5.5679595E-1,1.1001535E-1,-4.361159E-1,3.8640353E-1,1.09345615E-1,6.2686247E-1,1.3549976E-1,6.395876E-2,1.2601268E-1,-9.727019E-3,1.9440982E-1,1.1288903E-2,-4.121999E-2,1.2627593E-2,-2.348543E-2,6.322957E-2,-4.9687303E-3,5.549258E-2,1.2486829E-1,-1.7169623E-2,9.4287634E-2,-7.29406E-2,-1.4112364E-2,6.835602E-2,-2.7257124E-2,6.604476E-2,1.4552401E-1,6.574511E-2,5.8374326E-3,-4.175155E-2,4.121427E-2,-1.4028569E-2,7.959966E-2,3.6478333E-2,-7.2256476E-2,9.23202E-2,2.1846134E-2,8.3437376E-2,-6.4141797E-3],"categories":[],"categories_nodes":[],"categories_segments":[],"categories_sizes":[],"default_left":[0,0,0,0,0,0,0,0,0,0,0,0,0,0,0,0,0,0,0,0,0,0,0,0,0,0,0,0,0,0,0,0,0,0,0,0,0,0,0,0,0,0,0,0,0,0,0,0,0,0,0,0,0,0,0,0,0,0,0,0,0,0,0,0,0,0,0,0,0,0,0,0,0,0,0,0,0,0,0,0,0,0,0,0,0],"id":11,"left_children":[1,3,5,7,9,11,13,15,17,19,21,23,25,27,29,-1,31,33,35,37,39,41,-1,43,45,-1,47,49,-1,-1,51,53,-1,55,57,-1,59,61,-1,63,65,67,69,71,73,75,77,-1,79,81,-1,83,-1,-1,-1,-1,-1,-1,-1,-1,-1,-1,-1,-1,-1,-1,-1,-1,-1,-1,-1,-1,-1,-1,-1,-1,-1,-1,-1,-1,-1,-1,-1,-1,-1],"loss_changes":[1.1851783E1,7.634883E0,4.7840166E0,6.8550034E0,4.182585E0,4.6101866E0,1.5734243E0,2.9780834E0,2.9856663E0,3.4256644E0,2.7119482E0,6.2598357E0,2.4812531E0,2.1917171E0,3.0273724E-1,0E0,2.8100567E0,5.268098E0,5.824168E0,1.3666575E0,8.938875E-1,1.4178138E0,0E0,4.2568502E0,6.3798156E0,0E0,4.6770296E0,1.1244574E0,0E0,0E0,6.3835907E-1,1.4583015E-1,0E0,1.0901306E1,2.7494106E0,0E0,2.041886E0,1.6169429E0,0E0,3.7197113E-1,2.8032746E0,3.3783412E-1,3.9041586E0,1.0521612E0,1.7851955E0,2.149739E0,2.1650271E0,0E0,2.165526E0,1.773977E0,0E0,1.253417E0,0E0,0E0,0E0,0E0,0E0,0E0,0E0,0E0,0E0,0E0,0E0,0E0,0E0,0E0,0E0,0E0,0E0,0E0,0E0,0E0,0E0,0E0,0E0,0E0,0E0,0E0,0E0,0E0,0E0,0E0,0E0,0E0,0E0],"parents":[2147483647,0,0,1,1,2,2,3,3,4,4,5,5,6,6,7,7,8,8,9,9,10,10,11,11,12,12,13,13,14,14,16,16,17,17,18,18,19,19,20,20,21,21,23,23,24,24,26,26,27,27,30,30,31,31,33,33,34,34,36,36,37,37,39,39,40,40,41,41,42,42,43,43,44,44,45,45,46,46,48,48,49,49,51,51],"right_children":[2,4,6,8,10,12,14,16,18,20,22,24,26,28,30,-1,32,34,36,38,40,42,-1,44,46,-1,48,50,-1,-1,52,54,-1,56,58,-1,60,62,-1,64,66,68,70,72,74,76,78,-1,80,82,-1,84,-1,-1,-1,-1,-1,-1,-1,-1,-1,-1,-1,-1,-1,-1,-1,-1,-1,-1,-1,-1,-1,-1,-1,-1,-1,-1,-1,-1,-1,-1,-1,-1,-1],"split_conditions":[1E0,3.623875E1,3.35E1,5E0,4.08E1,3.05E1,8.55243E0,3.0768268E0,8.55243E0,3.89E1,1.15E1,7.406133E0,3.1359507E1,8.5E0,3.54E1,-5.532926E-2,3.02E1,7E0,9E0,1.15E1,7.406133E0,6.617376E0,8.114719E-2,2E0,9.203592E0,-9.904972E-2,3.17E1,4.98E1,-4.63905E-2,2.5236417E-2,1.0393358E1,4.5E0,-2.742058E-2,6.617376E0,2.09E1,1.2510781E-1,2.63E1,6.2984147E0,9.146305E-2,2E0,8.55243E0,4.54E1,7.0024786E0,6.617376E0,5.5E0,2.98E1,2E0,1.1001535E-1,6E0,3.52E1,1.09345615E-1,1E1,1.3549976E-1,6.395876E-2,1.2601268E-1,-9.727019E-3,1.9440982E-1,1.1288903E-2,-4.121999E-2,1.2627593E-2,-2.348543E-2,6.322957E-2,-4.9687303E-3,5.549258E-2,1.2486829E-1,-1.7169623E-2,9.4287634E-2,-7.29406E-2,-1.4112364E-2,6.835602E-2,-2.7257124E-2,6.604476E-2,1.4552401E-1,6.574511E-2,5.8374326E-3,-4.175155E-2,4.121427E-2,-1.4028569E-2,7.959966E-2,3.6478333E-2,-7.2256476E-2,9.23202E-2,2.1846134E-2,8.3437376E-2,-6.4141797E-3],"split_indices":[2,0,0,3,0,0,3,3,3,0,3,3,0,3,0,0,0,3,3,3,3,3,0,1,3,0,0,0,0,0,3,3,0,3,0,0,0,3,0,1,3,0,3,3,3,0,1,0,3,0,0,3,0,0,0,0,0,0,0,0,0,0,0,0,0,0,0,0,0,0,0,0,0,0,0,0,0,0,0,0,0,0,0,0,0],"split_type":[0,0,0,0,0,0,0,0,0,0,0,0,0,0,0,0,0,0,0,0,0,0,0,0,0,0,0,0,0,0,0,0,0,0,0,0,0,0,0,0,0,0,0,0,0,0,0,0,0,0,0,0,0,0,0,0,0,0,0,0,0,0,0,0,0,0,0,0,0,0,0,0,0,0,0,0,0,0,0,0,0,0,0,0,0],"sum_hessian":[4.4469012E2,3.25107E2,1.1958315E2,2.5777026E2,6.733673E1,8.2627884E1,3.6955265E1,1.2201773E1,2.4556848E2,3.8428364E1,2.8908367E1,7.01433E1,1.2484587E1,2.488659E1,1.2068678E1,1.4125953E0,1.0789178E1,1.808549E2,6.471357E1,2.2386497E1,1.6041866E1,2.67645E1,2.1438675E0,3.3375645E1,3.6767654E1,3.5862699E0,8.898317E0,2.3017239E1,1.8693501E0,1.6278037E0,1.0440874E1,8.900145E0,1.8890332E0,5.0524113E1,1.303308E2,2.453911E0,6.225966E1,2.119376E1,1.1927382E0,8.494507E0,7.547359E0,5.581064E0,2.1183435E1,1.1928524E1,2.144712E1,2.5453089E1,1.1314566E1,1.6079595E0,7.2903576E0,2.0914993E1,2.1022441E0,7.3680058E0,3.0728688E0,6.161368E0,2.7387767E0,4.8762947E1,1.7611657E0,1.0454922E1,1.1987587E2,2.6341982E1,3.591768E1,3.2789931E0,1.7914766E1,4.3104706E0,4.1840363E0,3.8188417E0,3.728517E0,3.6145484E0,1.9665158E0,4.6487885E0,1.6534647E1,8.058279E0,3.8702452E0,6.674735E0,1.4772386E1,2.2670094E1,2.7829962E0,2.9962826E0,8.318283E0,1.848516E0,5.4418416E0,3.9124331E0,1.7002562E1,5.506809E0,1.8611965E0],"tree_param":{"num_deleted":"0","num_feature":"4","num_nodes":"85","size_leaf_vector":"1"}},{"base_weights":[1.7700197E-2,-7.350874E-2,2.607003E-1,-1.4637403E-1,2.0020506E-1,4.91093E-1,1.1297672E-1,4.9666736E-1,-1.8075925E-1,3.9337978E-1,-6.469771E-2,3.9729908E-1,1.2093774E-1,2.1700257E-1,-2.3686378E-1,-5.2498788E-2,6.61917E-1,-2.4210657E-1,-1.0666915E-2,1.5155104E-1,7.004739E-1,-1.5628283E-1,7.662514E-2,6.795759E-1,8.4501654E-2,1.0985136E-1,7.518692E-1,-4.8226154E-1,1.317299E-1,8.611418E-1,-2.5808608E-2,1.2603679E-2,-3.4265488E-1,1.18032016E-1,-7.491827E-2,6.32318E-1,3.6636513E-2,9.046778E-1,3.9042002E-1,-5.475229E-1,-3.588647E-2,8.042794E-1,-5.1458266E-2,-5.663598E-1,4.7692022E-1,-3.4098342E-1,2.2904378E-1,1.1303773E-1,-2.6038978E-1,2.4806273E-1,-8.003357E-1,5.821954E-2,1.1669705E-1,-8.818123E-3,1.7499381E-1,1.018416E-2,-3.8346063E-2,1.5328291E-2,-2.0294366E-2,-3.0334158E-2,1.1296073E-1,6.108616E-2,-1.3256209E-2,3.3060115E-2,1.0308212E-1,-1.5942922E-2,8.586358E-2,-6.996914E-2,-1.3259876E-2,6.1502088E-2,-2.5021065E-2,1.1037053E-1,5.6916546E-2,-2.8889779E-2,-8.638155E-2,-3.523776E-3,1.0361176E-1,5.393826E-2,-8.550905E-2,2.7816212E-2,-5.5459864E-2,-7.444173E-2,3.7822127E-2,-2.1633899E-2,9.646487E-2,-4.8698593E-2,-1.0522361E-1],"categories":[],"categories_nodes":[],"categories_segments":[],"categories_sizes":[],"default_left":[0,0,0,0,0,0,0,0,0,0,0,0,0,0,0,0,0,0,0,0,0,0,0,0,0,0,0,0,0,0,0,0,0,0,0,0,0,0,0,0,0,0,0,0,0,0,0,0,0,0,0,0,0,0,0,0,0,0,0,0,0,0,0,0,0,0,0,0,0,0,0,0,0,0,0,0,0,0,0,0,0,0,0,0,0,0,0],"id":12,"left_children":[1,3,5,7,9,11,13,15,17,19,21,23,-1,25,27,-1,29,31,33,35,37,39,-1,41,43,45,47,49,-1,51,-1,53,55,-1,57,59,61,63,65,67,69,71,-1,73,75,77,79,-1,81,83,85,-1,-1,-1,-1,-1,-1,-1,-1,-1,-1,-1,-1,-1,-1,-1,-1,-1,-1,-1,-1,-1,-1,-1,-1,-1,-1,-1,-1,-1,-1,-1,-1,-1,-1,-1,-1],"loss_changes":[9.803515E0,6.446541E0,4.0524015E0,5.72125E0,3.5087335E0,2.6762247E0,2.7750869E0,2.5751047E0,2.5277824E0,2.8276687E0,2.3696587E0,3.733387E0,0E0,3.2535257E0,7.359866E0,0E0,2.385003E0,4.5674057E0,5.0871735E0,1.2683597E0,7.3124313E-1,1.2738115E0,0E0,3.753396E0,5.763377E0,2.7469654E0,3.9511194E0,3.9058828E0,0E0,1.6772175E-1,0E0,9.152911E0,2.3567095E0,0E0,1.869363E0,2.4124057E0,2.0172393E0,3.520527E-1,2.3407664E0,3.1077576E-1,3.2325068E0,8.287468E-1,0E0,4.558525E-1,4.0347996E0,5.3434343E0,1.689266E0,0E0,1.3356829E0,2.074061E0,3.837924E-1,0E0,0E0,0E0,0E0,0E0,0E0,0E0,0E0,0E0,0E0,0E0,0E0,0E0,0E0,0E0,0E0,0E0,0E0,0E0,0E0,0E0,0E0,0E0,0E0,0E0,0E0,0E0,0E0,0E0,0E0,0E0,0E0,0E0,0E0,0E0,0E0],"parents":[2147483647,0,0,1,1,2,2,3,3,4,4,5,5,6,6,7,7,8,8,9,9,10,10,11,11,13,13,14,14,16,16,17,17,18,18,19,19,20,20,21,21,23,23,24,24,25,25,26,26,27,27,29,29,31,31,32,32,34,34,35,35,36,36,37,37,38,38,39,39,40,40,41,41,43,43,44,44,45,45,46,46,48,48,49,49,50,50],"right_children":[2,4,6,8,10,12,14,16,18,20,22,24,-1,26,28,-1,30,32,34,36,38,40,-1,42,44,46,48,50,-1,52,-1,54,56,-1,58,60,62,64,66,68,70,72,-1,74,76,78,80,-1,82,84,86,-1,-1,-1,-1,-1,-1,-1,-1,-1,-1,-1,-1,-1,-1,-1,-1,-1,-1,-1,-1,-1,-1,-1,-1,-1,-1,-1,-1,-1,-1,-1,-1,-1,-1,-1,-1],"split_conditions":[1E0,3.623875E1,2E0,5E0,4.08E1,4.47E1,2E0,3.0768268E0,8.55243E0,3.89E1,1.15E1,7.406133E0,1.2093774E-1,9.203592E0,3.75E1,-5.2498788E-2,3.02E1,7E0,9E0,3.66E1,7.406133E0,6.617376E0,7.662514E-2,3.89E1,2.93E1,2.43E1,2.9E1,2.49E1,1.317299E-1,4.5E0,-2.5808608E-2,6.617376E0,2.09E1,1.18032016E-1,2E0,6.617376E0,6.7848277E0,5.7438874E0,8.55243E0,4.54E1,7.0024786E0,2.58E1,-5.1458266E-2,2E0,9.203592E0,5.7438874E0,4.31E1,1.1303773E-1,3.61E1,2.36E1,2.99E1,5.821954E-2,1.1669705E-1,-8.818123E-3,1.7499381E-1,1.018416E-2,-3.8346063E-2,1.5328291E-2,-2.0294366E-2,-3.0334158E-2,1.1296073E-1,6.108616E-2,-1.3256209E-2,3.3060115E-2,1.0308212E-1,-1.5942922E-2,8.586358E-2,-6.996914E-2,-1.3259876E-2,6.1502088E-2,-2.5021065E-2,1.1037053E-1,5.6916546E-2,-2.8889779E-2,-8.638155E-2,-3.523776E-3,1.0361176E-1,5.393826E-2,-8.550905E-2,2.7816212E-2,-5.5459864E-2,-7.444173E-2,3.7822127E-2,-2.1633899E-2,9.646487E-2,-4.8698593E-2,-1.0522361E-1],"split_indices":[2,0,1,3,0,0,2,3,3,0,3,3,0,3,0,0,0,3,3,0,3,3,0,0,0,0,0,0,0,3,0,3,0,0,1,3,3,3,3,0,3,0,0,2,3,3,0,0,0,0,0,0,0,0,0,0,0,0,0,0,0,0,0,0,0,0,0,0,0,0,0,0,0,0,0,0,0,0,0,0,0,0,0,0,0,0,0],"split_type":[0,0,0,0,0,0,0,0,0,0,0,0,0,0,0,0,0,0,0,0,0,0,0,0,0,0,0,0,0,0,0,0,0,0,0,0,0,0,0,0,0,0,0,0,0,0,0,0,0,0,0,0,0,0,0,0,0,0,0,0,0,0,0,0,0,0,0,0,0,0,0,0,0,0,0,0,0,0,0,0,0,0,0,0,0,0,0],"sum_hessian":[4.4045682E2,3.2075894E2,1.1969787E2,2.5368954E2,6.7069405E1,4.5855804E1,7.3842064E1,1.2194518E1,2.4149503E2,3.8505264E1,2.856414E1,4.193326E1,3.9225428E0,5.7210194E1,1.6631868E1,1.394721E0,1.0799797E1,1.7717119E2,6.4323845E1,2.2377253E1,1.6128012E1,2.6459738E1,2.1044028E0,2.1425623E1,2.0507637E1,4.8666157E1,8.544037E0,1.4959503E1,1.6723647E0,8.930002E0,1.869795E0,5.0392056E1,1.2677914E2,2.4033883E0,6.1920452E1,3.4482648E0,1.8928988E1,8.567549E0,7.5604625E0,5.391581E0,2.1068157E1,1.9695366E1,1.7302567E0,7.547002E0,1.2960636E1,9.786983E0,3.8879177E1,6.13378E0,2.4102564E0,4.605351E0,1.0354152E1,6.1888323E0,2.74117E0,4.8526234E1,1.8658228E0,1.0534216E1,1.1624492E2,2.218288E1,3.973757E1,1.3320314E0,2.1162336E0,3.7140262E0,1.5214961E1,2.1957157E0,6.3718333E0,3.7804213E0,3.780041E0,3.4427006E0,1.9488804E0,4.7556267E0,1.631253E1,7.0379477E0,1.2657418E1,4.924621E0,2.6223807E0,7.253908E0,5.706728E0,3.590088E0,6.1968946E0,3.7192978E1,1.6861986E0,1.2768223E0,1.133434E0,3.217965E0,1.3873861E0,5.9214516E0,4.4327006E0],"tree_param":{"num_deleted":"0","num_feature":"4","num_nodes":"87","size_leaf_vector":"1"}},{"base_weights":[1.7927658E-2,-6.152318E-2,2.5129294E-1,2.2648725E-1,-1.4188339E-1,1.721433E-1,9.136375E-1,2.7867502E-1,-7.349783E-1,-2.0486678E-1,1.4152479E-1,1.0829518E-1,1.4562102E-1,1.04262546E-1,3.934437E-1,2.1960215E-1,1.1492383E-1,-8.403139E-2,-2.1448636E-2,-2.502038E-2,-2.7845436E-1,1.1875649E-1,4.3479774E-2,1.8411925E-1,-3.2528228E-1,-4.7890496E-2,9.7356856E-2,5.58012E-1,8.625828E-2,-2.703995E-1,2.132837E-1,-5.387961E-1,-2.0684232E-1,-2.9782522E-1,1.5785784E-1,8.78759E-2,6.135458E-1,-4.9712887E-1,-1.0901281E-3,3.9641634E-2,1.2597966E-1,-3.5252877E-2,1.7772892E-2,-8.107369E-3,-4.855672E-2,-5.7281245E-2,7.6329843E-3,3.6703712E-1,-2.743627E-2,3.4165986E-2,-3.9306168E-2,2.2713664E-1,-1.5376633E-3,1.4662775E-2,-4.4600848E-2,8.1106685E-2,-7.7889524E-3,-2.7529716E-3,-9.617036E-2,4.7107294E-2,-4.00994E-2],"categories":[],"categories_nodes":[],"categories_segments":[],"categories_sizes":[],"default_left":[0,0,0,0,0,0,0,0,0,0,0,0,0,0,0,0,0,0,0,0,0,0,0,0,0,0,0,0,0,0,0,0,0,0,0,0,0,0,0,0,0,0,0,0,0,0,0,0,0,0,0,0,0,0,0,0,0,0,0,0,0],"id":13,"left_children":[1,3,5,7,9,11,13,15,17,19,21,-1,23,-1,25,27,-1,-1,-1,29,31,-1,33,35,37,-1,-1,39,41,43,-1,45,47,49,51,53,55,57,59,-1,-1,-1,-1,-1,-1,-1,-1,-1,-1,-1,-1,-1,-1,-1,-1,-1,-1,-1,-1,-1,-1],"loss_changes":[8.128846E0,7.6062374E0,5.67956E0,3.806268E0,4.6071005E0,2.2745383E0,3.7165165E-1,3.2860355E0,3.743863E-2,2.7755852E0,4.791798E0,0E0,1.8545153E0,0E0,2.450717E0,2.9151764E0,0E0,0E0,0E0,3.34834E1,2.668374E0,0E0,1.7731366E0,3.7545683E0,4.3639207E-1,0E0,0E0,1.5848598E0,2.0008357E0,2.2699819E0,0E0,7.037325E-1,3.2045036E1,8.31318E-1,1.2399854E1,2.4632308E0,2.3445158E0,1.0913033E0,8.9116526E-1,0E0,0E0,0E0,0E0,0E0,0E0,0E0,0E0,0E0,0E0,0E0,0E0,0E0,0E0,0E0,0E0,0E0,0E0,0E0,0E0,0E0,0E0],"parents":[2147483647,0,0,1,1,2,2,3,3,4,4,5,5,6,6,7,7,8,8,9,9,10,10,12,12,14,14,15,15,19,19,20,20,22,22,23,23,24,24,27,27,28,28,29,29,31,31,32,32,33,33,34,34,35,35,36,36,37,37,38,38],"right_children":[2,4,6,8,10,12,14,16,18,20,22,-1,24,-1,26,28,-1,-1,-1,30,32,-1,34,36,38,-1,-1,40,42,44,-1,46,48,50,52,54,56,58,60,-1,-1,-1,-1,-1,-1,-1,-1,-1,-1,-1,-1,-1,-1,-1,-1,-1,-1,-1,-1,-1,-1],"split_conditions":[3.49E1,6.5E0,1.0393358E1,3.38E1,9.203592E0,3.0768268E0,4.54E1,6.023855E0,1E0,7.5E0,9.5E0,1.0829518E-1,1E1,1.04262546E-1,1E0,5E0,1.1492383E-1,-8.403139E-2,-2.1448636E-2,7.0024786E0,7.6717615E0,1.1875649E-1,9.658643E0,8.55243E0,3.933969E1,-4.7890496E-2,9.7356856E-2,4.7405734E0,2.3442755E1,2.7591494E1,2.132837E-1,3.36E1,8E0,2.2E1,9.988963E0,8.5E0,4.11E1,3.66E1,4.17E1,3.9641634E-2,1.2597966E-1,-3.5252877E-2,1.7772892E-2,-8.107369E-3,-4.855672E-2,-5.7281245E-2,7.6329843E-3,3.6703712E-1,-2.743627E-2,3.4165986E-2,-3.9306168E-2,2.2713664E-1,-1.5376633E-3,1.4662775E-2,-4.4600848E-2,8.1106685E-2,-7.7889524E-3,-2.7529716E-3,-9.617036E-2,4.7107294E-2,-4.00994E-2],"split_indices":[0,3,3,0,3,3,0,3,2,3,3,0,3,0,2,3,0,0,0,3,3,0,3,3,0,0,0,3,0,0,0,0,3,0,3,3,0,0,0,0,0,0,0,0,0,0,0,0,0,0,0,0,0,0,0,0,0,0,0,0,0],"split_type":[0,0,0,0,0,0,0,0,0,0,0,0,0,0,0,0,0,0,0,0,0,0,0,0,0,0,0,0,0,0,0,0,0,0,0,0,0,0,0,0,0,0,0,0,0,0,0,0,0,0,0,0,0,0,0,0,0,0,0,0,0],"sum_hessian":[4.3659E2,3.262517E2,1.103383E2,7.077525E1,2.5547644E2,9.968583E1,1.0652475E1,6.7805E1,2.9702585E0,2.0925063E2,4.6225815E1,1.693603E0,9.7992226E1,7.731149E0,2.9213266E0,6.4669075E1,3.1359262E0,1.9592838E0,1.0109746E0,6.1147503E1,1.4810313E2,3.0091214E0,4.321669E1,9.114941E1,6.842822E0,1.2364798E0,1.6848469E0,1.7378891E1,4.729018E1,5.5689503E1,5.457999E0,3.0542747E1,1.1756039E2,1.0444966E1,3.2771725E1,7.5445206E1,1.5704194E1,4.123574E0,2.7192483E0,1.5398127E1,1.9807644E0,7.66534E0,3.962484E1,3.0356043E1,2.533346E1,2.9007433E1,1.5353142E0,1.0989002E0,1.1646149E2,1.0185058E0,9.426461E0,1.5651346E0,3.120659E1,6.8619286E1,6.825923E0,1.20802355E1,3.6239586E0,2.577478E0,1.546096E0,1.1653565E0,1.5538919E0],"tree_param":{"num_deleted":"0","num_feature":"4","num_nodes":"61","size_leaf_vector":"1"}},{"base_weights":[1.8521482E-2,-6.305358E-2,2.3254114E-1,-1.2547857E-1,1.6563545E-1,-1.4609751E-1,3.027453E-1,9.5352575E-2,-1.9991723E-1,3.361858E-1,-7.18687E-2,3.3019733E-1,-5.849513E-1,5.0047237E-1,1.598199E-1,2.1548524E-2,1.603762E-1,-3.4060004E-1,-2.9396283E-2,1.1740484E-1,6.15317E-1,-1.5229918E-1,6.802654E-2,7.4640614E-1,-1.5418717E-1,-6.905111E-2,1.1629283E-2,7.898779E-1,3.2736468E-1,2.7251297E-1,-2.4359033E-1,3.1051856E-1,-1.7778651E-1,3.438726E-1,-3.7281606E-1,1.8231265E-1,-2.6774067E-1,-1.414495E-1,3.0410513E-1,8.034701E-1,3.315853E-1,-5.2916664E-1,-3.7722412E-2,1.02183044E-1,-2.003256E-2,-5.73972E-1,5.1487178E-2,8.8127583E-1,-1.24084465E-2,1.9251905E-1,9.918135E-2,6.7507637E-1,1.23559676E-1,-5.520526E-1,1.18232846E-1,1.2023735E-1,1.8681966E-2,-7.918586E-2,-4.0219924E-3,-1.2224559E-2,4.9603295E-2,-5.8094244E-2,-2.1611424E-2,1.129265E-2,1.365326E-1,1.302459E-2,-5.3878803E-2,5.219514E-2,-5.2792694E-2,7.566079E-2,3.3824083E-3,4.1422784E-2,1.0580569E-1,7.944413E-2,-1.1345151E-2,-6.771381E-2,-1.3344707E-2,5.4081507E-2,-2.343822E-2,-7.268296E-2,-8.203902E-3,6.449623E-2,1.2558065E-1,-1.7007675E-3,6.182108E-2,3.7952863E-2,1.3179216E-1,8.6864096E-4,4.7798097E-2,7.47119E-2,-7.588518E-2],"categories":[],"categories_nodes":[],"categories_segments":[],"categories_sizes":[],"default_left":[0,0,0,0,0,0,0,0,0,0,0,0,0,0,0,0,0,0,0,0,0,0,0,0,0,0,0,0,0,0,0,0,0,0,0,0,0,0,0,0,0,0,0,0,0,0,0,0,0,0,0,0,0,0,0,0,0,0,0,0,0,0,0,0,0,0,0,0,0,0,0,0,0,0,0,0,0,0,0,0,0,0,0,0,0,0,0,0,0,0,0],"id":14,"left_children":[1,3,5,7,9,11,13,15,17,19,21,23,25,27,29,31,-1,33,35,37,39,41,-1,43,45,-1,-1,47,49,51,53,55,57,59,61,63,65,67,69,71,73,75,77,-1,-1,79,-1,81,-1,83,-1,85,87,89,-1,-1,-1,-1,-1,-1,-1,-1,-1,-1,-1,-1,-1,-1,-1,-1,-1,-1,-1,-1,-1,-1,-1,-1,-1,-1,-1,-1,-1,-1,-1,-1,-1,-1,-1,-1,-1],"loss_changes":[7.583603E0,4.5131154E0,3.2302337E0,4.091999E0,2.774921E0,4.2526617E0,2.7865705E0,6.994705E0,4.4431133E0,2.352305E0,1.8704784E0,2.1215703E0,8.552313E-1,1.8500099E0,2.8097725E0,3.5809693E0,0E0,2.3690033E0,4.3383865E0,1.1783834E0,6.522908E-1,1.1546575E0,0E0,1.6451468E0,1.8201352E0,0E0,0E0,1.3661366E0,2.3217323E0,2.7732725E0,6.6805882E0,2.5721107E0,3.0817938E0,4.2150962E-1,3.0553074E0,3.5901537E0,4.427662E0,2.9744942E0,1.6825091E0,5.174756E-1,1.8542999E0,2.7650726E-1,2.622678E0,0E0,0E0,2.2674751E-1,0E0,4.1151237E-1,0E0,2.2005408E0,0E0,1.9018216E0,1.4614515E0,3.7772489E0,0E0,0E0,0E0,0E0,0E0,0E0,0E0,0E0,0E0,0E0,0E0,0E0,0E0,0E0,0E0,0E0,0E0,0E0,0E0,0E0,0E0,0E0,0E0,0E0,0E0,0E0,0E0,0E0,0E0,0E0,0E0,0E0,0E0,0E0,0E0,0E0,0E0],"parents":[2147483647,0,0,1,1,2,2,3,3,4,4,5,5,6,6,7,7,8,8,9,9,10,10,11,11,12,12,13,13,14,14,15,15,17,17,18,18,19,19,20,20,21,21,23,23,24,24,27,27,28,28,29,29,30,30,31,31,32,32,33,33,34,34,35,35,36,36,37,37,38,38,39,39,40,40,41,41,42,42,45,45,47,47,49,49,51,51,52,52,53,53],"right_children":[2,4,6,8,10,12,14,16,18,20,22,24,26,28,30,32,-1,34,36,38,40,42,-1,44,46,-1,-1,48,50,52,54,56,58,60,62,64,66,68,70,72,74,76,78,-1,-1,80,-1,82,-1,84,-1,86,88,90,-1,-1,-1,-1,-1,-1,-1,-1,-1,-1,-1,-1,-1,-1,-1,-1,-1,-1,-1,-1,-1,-1,-1,-1,-1,-1,-1,-1,-1,-1,-1,-1,-1,-1,-1,-1,-1],"split_conditions":[1E0,3.623875E1,2.42E1,7E0,4.08E1,2.17E1,2E0,6.617376E0,8.218065E0,3.89E1,1.15E1,7.1956363E0,9.658643E0,7E0,2E0,2E0,1.603762E-1,1.95E1,2.74E1,7.6717615E0,7.406133E0,6.617376E0,6.802654E-2,2E0,9.203592E0,-6.905111E-2,1.1629283E-2,3.89E1,4.47E1,2.69E1,3.75E1,2.13E1,2.3442755E1,7.0024786E0,2.62E1,2.71E1,2E0,6.2984147E0,8.218065E0,2E0,3.953339E1,4.54E1,7.0024786E0,1.02183044E-1,-2.003256E-2,2.0595097E1,5.1487178E-2,3.26E1,-1.24084465E-2,9.203592E0,9.918135E-2,9.658643E0,8.55243E0,2.49E1,1.18232846E-1,1.2023735E-1,1.8681966E-2,-7.918586E-2,-4.0219924E-3,-1.2224559E-2,4.9603295E-2,-5.8094244E-2,-2.1611424E-2,1.129265E-2,1.365326E-1,1.302459E-2,-5.3878803E-2,5.219514E-2,-5.2792694E-2,7.566079E-2,3.3824083E-3,4.1422784E-2,1.0580569E-1,7.944413E-2,-1.1345151E-2,-6.771381E-2,-1.3344707E-2,5.4081507E-2,-2.343822E-2,-7.268296E-2,-8.203902E-3,6.449623E-2,1.2558065E-1,-1.7007675E-3,6.182108E-2,3.7952863E-2,1.3179216E-1,8.6864096E-4,4.7798097E-2,7.47119E-2,-7.588518E-2],"split_indices":[2,0,0,3,0,0,1,3,3,0,3,3,3,3,2,1,0,0,0,3,3,3,0,2,3,0,0,0,0,0,0,0,0,3,0,0,1,3,3,1,0,0,3,0,0,0,0,0,0,3,0,3,3,0,0,0,0,0,0,0,0,0,0,0,0,0,0,0,0,0,0,0,0,0,0,0,0,0,0,0,0,0,0,0,0,0,0,0,0,0,0],"split_type":[0,0,0,0,0,0,0,0,0,0,0,0,0,0,0,0,0,0,0,0,0,0,0,0,0,0,0,0,0,0,0,0,0,0,0,0,0,0,0,0,0,0,0,0,0,0,0,0,0,0,0,0,0,0,0,0,0,0,0,0,0,0,0,0,0,0,0,0,0,0,0,0,0,0,0,0,0,0,0,0,0,0,0,0,0,0,0,0,0,0,0],"sum_hessian":[4.3253482E2,3.1367923E2,1.18855606E2,2.4677002E2,6.690922E1,1.8421293E1,1.0043431E2,6.2140846E1,1.8462917E2,3.870202E1,2.8207195E1,8.952546E0,9.468746E0,4.1088997E1,5.9345318E1,6.0209194E1,1.9316534E0,1.0061916E2,8.401001E1,2.2492876E1,1.6209145E1,2.6202686E1,2.0045087E0,4.5241876E0,4.4283586E0,8.243187E0,1.2255591E0,1.4045116E1,2.7043879E1,4.664067E1,1.2704646E1,2.4350798E1,3.5858395E1,4.0880957E0,9.653107E1,4.461548E1,3.9394527E1,9.526727E0,1.2966149E1,8.644716E0,7.564429E0,5.265356E0,2.093733E1,3.443172E0,1.0810158E0,2.8084102E0,1.6199485E0,1.2800778E1,1.2443382E0,2.3553576E1,3.490305E0,1.1642728E1,3.4997944E1,1.0948955E1,1.7556913E0,1.9038799E0,2.2446918E1,5.692397E0,3.0165998E1,1.0544777E0,3.033618E0,4.0299385E1,5.6231678E1,4.3178432E1,1.4370469E0,1.6170458E1,2.322407E1,3.3779066E0,6.14882E0,4.1757684E0,8.7903805E0,4.457154E0,4.187562E0,3.3231287E0,4.2413E0,3.314725E0,1.9506313E0,4.867633E0,1.6069696E1,1.778334E0,1.0300761E0,9.517611E0,3.283168E0,1.6427807E1,7.1257677E0,9.065333E0,2.5773942E0,2.7204926E1,7.793017E0,1.14472E0,9.8042345E0],"tree_param":{"num_deleted":"0","num_feature":"4","num_nodes":"91","size_leaf_vector":"1"}},{"base_weights":[1.9251894E-2,-5.5874042E-2,2.1452345E-1,-1.1362541E-1,1.5376337E-1,8.525265E-1,1.7638294E-1,3.976466E-1,-1.4196622E-1,1.0478828E-1,8.9070626E-2,1.04282394E-1,4.5091403E-1,1.3081814E-1,8.242515E-1,-5.1482823E-2,5.4922634E-1,-2.0712446E-1,-2.570112E-2,2.6162118E-1,-1.6225068E-1,9.741878E-2,-4.1475084E-2,2.2436176E-1,-1.3094705E-1,1.01655796E-1,3.039662E-2,7.2560275E-1,-2.5338182E-2,-1.0564751E-1,-4.533874E-1,1.6554838E-1,-2.4698989E-1,3.640982E-2,5.052647E-1,-4.822731E-1,-5.715515E-2,1.507913E-1,5.2701455E-1,-2.3393238E-1,3.3348316E-1,4.745298E-2,1.0180755E-1,-1.6122688E-2,2.8733575E-1,-7.380446E-2,-1.6760152E-2,1.0122265E-2,1.20909095E-1,1.1711879E-2,-5.0568964E-2,4.7658186E-2,-6.790896E-3,7.0481E-2,2.269321E-2,-1.32821845E-2,-6.339568E-2,4.3556582E-2,-2.0254742E-2,2.5106544E-2,-2.8572971E-2,7.4771135E-3,6.313078E-2,-1.0721324E-3,-1.01317E-1,5.885265E-2,-3.3863712E-2],"categories":[],"categories_nodes":[],"categories_segments":[],"categories_sizes":[],"default_left":[0,0,0,0,0,0,0,0,0,0,0,0,0,0,0,0,0,0,0,0,0,0,0,0,0,0,0,0,0,0,0,0,0,0,0,0,0,0,0,0,0,0,0,0,0,0,0,0,0,0,0,0,0,0,0,0,0,0,0,0,0,0,0,0,0,0,0],"id":15,"left_children":[1,3,5,7,9,11,13,15,17,19,-1,-1,21,23,25,-1,27,29,31,33,35,-1,-1,37,39,-1,-1,41,-1,43,45,47,49,51,53,55,57,59,61,63,65,-1,-1,-1,-1,-1,-1,-1,-1,-1,-1,-1,-1,-1,-1,-1,-1,-1,-1,-1,-1,-1,-1,-1,-1,-1,-1],"loss_changes":[6.323525E0,3.7886868E0,2.763383E0,3.6034567E0,2.3501678E0,2.605486E-2,3.2647636E0,2.0973818E0,1.7573156E0,2.7486305E0,0E0,0E0,2.1477773E0,2.6721835E0,4.2324162E-1,0E0,1.8450172E0,3.6747713E0,3.6257613E0,2.2363367E0,7.97299E-1,0E0,0E0,1.6992254E0,1.4672883E0,0E0,0E0,2.4234867E-1,0E0,1.8146103E1,3.3880072E0,2.967832E0,3.795963E0,1.0623566E0,9.319873E-1,2.3004949E-1,1.4920986E0,2.9459004E0,6.706748E-1,4.226572E0,1.1736766E0,0E0,0E0,0E0,0E0,0E0,0E0,0E0,0E0,0E0,0E0,0E0,0E0,0E0,0E0,0E0,0E0,0E0,0E0,0E0,0E0,0E0,0E0,0E0,0E0,0E0,0E0],"parents":[2147483647,0,0,1,1,2,2,3,3,4,4,5,5,6,6,7,7,8,8,9,9,12,12,13,13,14,14,16,16,17,17,18,18,19,19,20,20,23,23,24,24,27,27,29,29,30,30,31,31,32,32,33,33,34,34,35,35,36,36,37,37,38,38,39,39,40,40],"right_children":[2,4,6,8,10,12,14,16,18,20,-1,-1,22,24,26,-1,28,30,32,34,36,-1,-1,38,40,-1,-1,42,-1,44,46,48,50,52,54,56,58,60,62,64,66,-1,-1,-1,-1,-1,-1,-1,-1,-1,-1,-1,-1,-1,-1,-1,-1,-1,-1,-1,-1,-1,-1,-1,-1,-1,-1],"split_conditions":[1E0,3.623875E1,4.5E0,5E0,1.15E1,2.92E1,4.47E1,3.0768268E0,8.218065E0,4.11E1,8.9070626E-2,1.04282394E-1,3.0768268E0,2E0,2E0,-5.1482823E-2,3.02E1,8E0,2.74E1,3.89E1,6.617376E0,9.741878E-2,-4.1475084E-2,9.203592E0,3.5700542E1,1.01655796E-1,3.039662E-2,4.5E0,-2.5338182E-2,7.6717615E0,2.7E1,2.71E1,2E0,6.2984147E0,7.406133E0,5.7438874E0,7.0024786E0,8.5E0,2.48E1,3.0336943E1,4.08E1,4.745298E-2,1.0180755E-1,-1.6122688E-2,2.8733575E-1,-7.380446E-2,-1.6760152E-2,1.0122265E-2,1.20909095E-1,1.1711879E-2,-5.0568964E-2,4.7658186E-2,-6.790896E-3,7.0481E-2,2.269321E-2,-1.32821845E-2,-6.339568E-2,4.3556582E-2,-2.0254742E-2,2.5106544E-2,-2.8572971E-2,7.4771135E-3,6.313078E-2,-1.0721324E-3,-1.01317E-1,5.885265E-2,-3.3863712E-2],"split_indices":[2,0,3,3,3,0,0,3,3,0,0,0,3,2,1,0,0,3,0,0,3,0,0,3,0,0,0,3,0,3,0,0,1,3,3,3,3,3,0,0,0,0,0,0,0,0,0,0,0,0,0,0,0,0,0,0,0,0,0,0,0,0,0,0,0,0,0],"split_type":[0,0,0,0,0,0,0,0,0,0,0,0,0,0,0,0,0,0,0,0,0,0,0,0,0,0,0,0,0,0,0,0,0,0,0,0,0,0,0,0,0,0,0,0,0,0,0,0,0,0,0,0,0,0,0,0,0,0,0,0,0,0,0,0,0,0,0],"sum_hessian":[4.2923566E2,3.1049442E2,1.1874124E2,2.4379205E2,6.670237E1,5.493603E0,1.13247635E2,1.2119729E1,2.3167232E2,6.361678E1,3.0855932E0,2.6441326E0,2.8494709E0,1.0692919E2,6.3184433E0,1.3851328E0,1.0734596E1,1.4796635E2,8.370597E1,4.009131E1,2.3525473E1,1.6978171E0,1.1516536E0,7.8882774E1,2.8046421E1,3.9168577E0,2.4015858E0,8.879282E0,1.8553141E0,1.0579902E2,4.2167328E1,4.5035656E1,3.8670315E1,2.1431026E1,1.866028E1,4.9286194E0,1.8596853E1,6.46625E1,1.4220275E1,2.3362247E1,4.6841717E0,6.188901E0,2.6903808E0,1.0478983E2,1.0091873E0,2.0332563E1,2.1834764E1,4.345407E1,1.581584E0,1.629005E1,2.2380264E1,3.4222715E0,1.8008755E1,9.975953E0,8.684328E0,2.0595183E0,2.8691008E0,3.7825027E0,1.481435E1,5.2928932E1,1.1733565E1,2.9865828E0,1.1233692E1,1.8948303E1,4.4139447E0,3.4858148E0,1.198357E0],"tree_param":{"num_deleted":"0","num_feature":"4","num_nodes":"67","size_leaf_vector":"1"}},{"base_weights":[1.8970387E-2,-4.946748E-2,1.9484517E-1,1.3154191E-1,-1.11546405E-1,-1.4897405E-1,2.5771117E-1,4.614857E-2,1.5742087E-1,-2.1276037E-1,7.225463E-2,2.8359675E-1,-5.588899E-1,1.0042577E-1,2.257192E-1,1.365657E-1,-2.6904818E-1,-3.880035E-1,-1.17879406E-1,1.2666751E-1,9.852768E-3,6.405478E-1,-1.4694938E-1,-6.6260743E-1,1.0689024E-2,1.3156715E-1,4.52187E-1,6.014071E-2,1.1020638E-1,-5.800037E-1,5.6180842E-2,1.276607E-1,-5.1698226E-1,7.0404714E-1,-2.2840248E-1,-1.1707584E-1,2.7576423E-1,8.759082E-2,-1.905867E-2,-5.523155E-1,4.7528394E-2,-3.5195675E-1,-7.718301E-1,2.1800828E-1,-7.270866E-2,1.3639812E-1,3.4602055E-1,1.822391E-2,-1.6912872E-2,-2.0568324E-2,-6.7751594E-2,4.049393E-2,-1.1336599E-2,5.9859462E-2,-1.3257637E-2,-1.9134456E-2,-6.214642E-2,1.1624744E-1,4.621483E-2,-4.1824583E-2,-5.32569E-3,6.011074E-3,-3.8390942E-2,4.876713E-2,-2.422412E-3,-7.053499E-2,-7.608462E-3,2.1832348E-3,-7.186072E-2,-8.750414E-2,-3.0038586E-2,4.758263E-2,3.7460227E-3,2.1887338E-3,5.2131373E-2],"categories":[],"categories_nodes":[],"categories_segments":[],"categories_sizes":[],"default_left":[0,0,0,0,0,0,0,0,0,0,0,0,0,0,0,0,0,0,0,0,0,0,0,0,0,0,0,0,0,0,0,0,0,0,0,0,0,0,0,0,0,0,0,0,0,0,0,0,0,0,0,0,0,0,0,0,0,0,0,0,0,0,0,0,0,0,0,0,0,0,0,0,0,0,0],"id":16,"left_children":[1,3,5,7,9,11,13,15,-1,17,19,21,23,-1,25,27,29,31,33,-1,35,37,39,41,-1,43,45,47,-1,49,51,53,55,57,59,61,63,-1,-1,65,-1,67,69,71,-1,-1,73,-1,-1,-1,-1,-1,-1,-1,-1,-1,-1,-1,-1,-1,-1,-1,-1,-1,-1,-1,-1,-1,-1,-1,-1,-1,-1,-1,-1],"loss_changes":[5.15555E0,3.4819546E0,2.6313334E0,9.691531E0,4.299782E0,3.559046E0,2.2043023E0,2.1986742E0,0E0,2.4279423E0,6.138949E0,1.6301044E0,7.7401614E-1,0E0,2.049131E0,4.332425E0,1.7767885E0,3.5125303E0,9.059018E0,0E0,2.7135897E0,1.2723253E0,1.6103303E0,3.2012224E-2,0E0,5.447818E0,2.2994766E0,1.606788E0,0E0,1.856935E-1,5.9828556E-1,1.4482925E0,1.2981548E0,7.7743196E-1,2.8737364E0,2.5986557E0,1.6624694E0,0E0,0E0,2.1585524E-1,0E0,5.8668596E-1,1.8556595E-2,3.0317483E0,0E0,0E0,1.5217779E0,0E0,0E0,0E0,0E0,0E0,0E0,0E0,0E0,0E0,0E0,0E0,0E0,0E0,0E0,0E0,0E0,0E0,0E0,0E0,0E0,0E0,0E0,0E0,0E0,0E0,0E0,0E0,0E0],"parents":[2147483647,0,0,1,1,2,2,3,3,4,4,5,5,6,6,7,7,9,9,10,10,11,11,12,12,14,14,15,15,16,16,17,17,18,18,20,20,21,21,22,22,23,23,25,25,26,26,27,27,29,29,30,30,31,31,32,32,33,33,34,34,35,35,36,36,39,39,41,41,42,42,43,43,46,46],"right_children":[2,4,6,8,10,12,14,16,-1,18,20,22,24,-1,26,28,30,32,34,-1,36,38,40,42,-1,44,46,48,-1,50,52,54,56,58,60,62,64,-1,-1,66,-1,68,70,72,-1,-1,74,-1,-1,-1,-1,-1,-1,-1,-1,-1,-1,-1,-1,-1,-1,-1,-1,-1,-1,-1,-1,-1,-1,-1,-1,-1,-1,-1,-1],"split_conditions":[1E0,7E0,2.42E1,6.617376E0,8.55243E0,2.17E1,4E0,6.5E0,1.5742087E-1,2.6372494E1,9E0,7.1956363E0,9.658643E0,1.0042577E-1,8.55243E0,6.023855E0,2.96E1,2.09E1,2.74E1,1.2666751E-1,3.33E1,2E0,9.203592E0,6.023855E0,1.0689024E-2,8.5E0,9E0,6E0,1.1020638E-1,2E0,3.24E1,7.5E0,7.5E0,7.1956363E0,7.6717615E0,2.74E1,2E0,8.759082E-2,-1.905867E-2,2.0595097E1,4.7528394E-2,2.2919315E1,2.36E1,2.9E1,-7.270866E-2,1.3639812E-1,2.86E1,1.822391E-2,-1.6912872E-2,-2.0568324E-2,-6.7751594E-2,4.049393E-2,-1.1336599E-2,5.9859462E-2,-1.3257637E-2,-1.9134456E-2,-6.214642E-2,1.1624744E-1,4.621483E-2,-4.1824583E-2,-5.32569E-3,6.011074E-3,-3.8390942E-2,4.876713E-2,-2.422412E-3,-7.053499E-2,-7.608462E-3,2.1832348E-3,-7.186072E-2,-8.750414E-2,-3.0038586E-2,4.758263E-2,3.7460227E-3,2.1887338E-3,5.2131373E-2],"split_indices":[2,3,0,3,3,0,3,3,0,0,3,3,3,0,3,3,0,0,0,0,0,2,3,3,0,3,3,3,0,1,0,3,3,3,3,0,1,0,0,0,0,0,0,0,0,0,0,0,0,0,0,0,0,0,0,0,0,0,0,0,0,0,0,0,0,0,0,0,0,0,0,0,0,0,0],"split_type":[0,0,0,0,0,0,0,0,0,0,0,0,0,0,0,0,0,0,0,0,0,0,0,0,0,0,0,0,0,0,0,0,0,0,0,0,0,0,0,0,0,0,0,0,0,0,0,0,0,0,0,0,0,0,0,0,0,0,0,0,0,0,0,0,0,0,0,0,0,0,0,0,0,0,0],"sum_hessian":[4.265258E2,3.0756302E2,1.1896277E2,7.825846E1,2.2930455E2,1.8177711E1,1.0078506E2,7.485942E1,3.399039E0,1.4777277E2,8.153179E1,8.994388E0,9.183324E0,2.89266E0,9.7892395E1,5.8612587E1,1.624684E1,5.081998E1,9.695278E1,3.0899055E0,7.844189E1,4.6508064E0,4.343581E0,7.9496636E0,1.2336602E0,7.026237E1,2.7630026E1,5.5297726E1,3.3148584E0,7.905205E0,8.341634E0,1.0169997E1,4.0649986E1,1.0855273E1,8.60975E1,5.347579E1,2.4966099E1,3.582457E0,1.0683495E0,2.698171E0,1.6454103E0,3.1663425E0,4.783321E0,6.451383E1,5.7485375E0,1.6460042E0,2.5984022E1,3.621592E1,1.9081806E1,2.2763362E0,5.6288686E0,2.2745378E0,6.0670958E0,3.1569264E0,7.013071E0,1.0562211E1,3.0087774E1,2.435012E0,8.420261E0,4.0649174E1,4.5448334E1,3.2601807E1,2.0873983E1,1.426435E1,1.0701749E1,1.6778824E0,1.0202885E0,2.0336013E0,1.132741E0,3.2218816E0,1.5614395E0,2.5897463E1,3.861637E1,9.514919E0,1.64691E1],"tree_param":{"num_deleted":"0","num_feature":"4","num_nodes":"75","size_leaf_vector":"1"}},{"base_weights":[1.8169038E-2,8.118051E-4,6.753618E-1,1.776327E-1,-6.851082E-2,-8.4797125E-3,7.9474777E-1,9.304655E-2,1.8057428E-1,-1.5381159E-1,9.128297E-2,1.4004944E-1,4.3522894E-1,2.0095517E-1,-3.560047E-1,-1.7645939E-1,5.087766E-1,1.4492658E-1,1.3628177E-2,-4.322023E-1,9.791493E-1,1.4317226E-1,1.1289141E-1,-5.0395846E-1,-5.184701E-2,7.5154277E-3,-2.4959815E-1,2.4901049E-1,8.831036E-2,-7.729118E-2,5.3247888E-2,-7.533394E-2,1.4804698E-2,3.421205E-2,1.1029893E-1,3.189869E-2,-4.2808638E-4,-1.4002479E-2,-6.2325783E-2,5.051753E-2,-2.4215443E-2,-3.197895E-2,2.087328E-1,-5.364989E-2,-1.40106E-2,-2.8911978E-2,4.5280226E-2,-1.3486134E-2,1.8212019E-2],"categories":[],"categories_nodes":[],"categories_segments":[],"categories_sizes":[],"default_left":[0,0,0,0,0,0,0,0,0,0,0,0,0,0,0,0,0,0,0,0,0,0,0,0,0,0,0,0,0,0,0,0,0,0,0,0,0,0,0,0,0,0,0,0,0,0,0,0,0],"id":17,"left_children":[1,3,5,7,9,-1,11,13,-1,15,17,-1,19,21,23,25,27,-1,29,31,33,35,-1,37,39,41,43,45,-1,-1,47,-1,-1,-1,-1,-1,-1,-1,-1,-1,-1,-1,-1,-1,-1,-1,-1,-1,-1],"loss_changes":[4.8410244E0,5.093187E0,1.0584283E0,1.5947557E1,4.0827E0,0E0,1.4668331E0,5.512996E0,0E0,3.0157127E0,1.1001628E1,0E0,3.9307122E0,4.7273526E0,9.6919274E-1,2.5487728E0,4.317727E-1,0E0,3.1533532E0,7.746753E-1,7.2569847E-3,2.256234E0,0E0,5.537784E-1,1.0077608E0,3.798094E1,4.1802998E0,7.175267E-1,0E0,0E0,2.35219E0,0E0,0E0,0E0,0E0,0E0,0E0,0E0,0E0,0E0,0E0,0E0,0E0,0E0,0E0,0E0,0E0,0E0,0E0],"parents":[2147483647,0,0,1,1,2,2,3,3,4,4,6,6,7,7,9,9,10,10,12,12,13,13,14,14,15,15,16,16,18,18,19,19,20,20,21,21,23,23,24,24,25,25,26,26,27,27,30,30],"right_children":[2,4,6,8,10,-1,12,14,-1,16,18,-1,20,22,24,26,28,-1,30,32,34,36,-1,38,40,42,44,46,-1,-1,48,-1,-1,-1,-1,-1,-1,-1,-1,-1,-1,-1,-1,-1,-1,-1,-1,-1,-1],"split_conditions":[1.15E1,7E0,2.41E1,6.617376E0,8.55243E0,-8.4797125E-3,2.71E1,6.5E0,1.8057428E-1,4.84E1,9E0,1.4004944E-1,3.49E1,6.023855E0,3.22E1,7.5E0,1E0,1.4492658E-1,2.0595097E1,1E0,1.2E1,2E0,1.1289141E-1,2.49E1,3.39E1,7.0024786E0,7.6717615E0,2E0,8.831036E-2,-7.729118E-2,9.203592E0,-7.533394E-2,1.4804698E-2,3.421205E-2,1.1029893E-1,3.189869E-2,-4.2808638E-4,-1.4002479E-2,-6.2325783E-2,5.051753E-2,-2.4215443E-2,-3.197895E-2,2.087328E-1,-5.364989E-2,-1.40106E-2,-2.8911978E-2,4.5280226E-2,-1.3486134E-2,1.8212019E-2],"split_indices":[3,3,0,3,3,0,0,3,0,0,3,0,0,3,0,3,2,0,0,2,3,1,0,0,0,3,3,1,0,0,3,0,0,0,0,0,0,0,0,0,0,0,0,0,0,0,0,0,0],"split_type":[0,0,0,0,0,0,0,0,0,0,0,0,0,0,0,0,0,0,0,0,0,0,0,0,0,0,0,0,0,0,0,0,0,0,0,0,0,0,0,0,0,0,0,0,0,0,0,0,0],"sum_hessian":[4.2343692E2,4.135167E2,9.920226E0,1.1602074E2,2.9749594E2,1.385858E0,8.534368E0,1.1129568E2,4.725059E0,1.9398222E2,1.03513725E2,2.1002412E0,6.4341264E0,9.0178055E1,2.111762E1,1.8828033E2,5.701889E0,4.6437387E0,9.886999E1,2.5588028E0,3.8753238E0,8.597856E1,4.1994963E0,1.37649355E1,7.3526845E0,5.381363E1,1.344667E2,4.349059E0,1.3528299E0,3.853865E0,9.501612E1,1.4551511E0,1.1036516E0,1.2431588E0,2.632165E0,3.8687046E1,4.7291515E1,3.934895E0,9.83004E0,1.4510365E0,5.901648E0,4.7227562E1,6.5860696E0,3.6065334E1,9.840137E1,1.0795937E0,3.2694652E0,3.861095E1,5.6405174E1],"tree_param":{"num_deleted":"0","num_feature":"4","num_nodes":"49","size_leaf_vector":"1"}},{"base_weights":[1.8172517E-2,1.9090055E-3,6.35349E-1,1.6274814E-1,-6.16943E-2,-7.998141E-3,7.490396E-1,8.4836476E-2,1.6576514E-1,-1.4007759E-1,8.3069764E-2,1.2863055E-1,4.131522E-1,1.8242024E-1,-3.3055276E-1,-3.4569183E-1,-6.160539E-2,1.3660495E-1,1.1431831E-2,-4.1342884E-1,9.343845E-1,1.2877715E-1,1.0839782E-1,-4.740283E-1,-4.3945733E-2,1.8850992E-2,-4.951947E-1,1.1549819E-2,-4.2950156E-1,-7.413952E-2,4.790893E-2,-7.284398E-2,1.3992095E-2,3.258434E-2,1.05325595E-1,2.8582944E-2,-3.8623082E-4,-1.2990549E-2,-5.9027888E-2,1.3232051E-2,-6.5680735E-2,-3.3887926E-2,1.4140527E-1,1.9623226E-2,-5.4027468E-2,-1.6349182E-2,2.331122E-2,-2.4755117E-3,-6.424931E-2,-1.2281621E-2,1.6317606E-2],"categories":[],"categories_nodes":[],"categories_segments":[],"categories_sizes":[],"default_left":[0,0,0,0,0,0,0,0,0,0,0,0,0,0,0,0,0,0,0,0,0,0,0,0,0,0,0,0,0,0,0,0,0,0,0,0,0,0,0,0,0,0,0,0,0,0,0,0,0,0,0],"id":18,"left_children":[1,3,5,7,9,-1,11,13,-1,15,17,-1,19,21,23,25,27,-1,29,31,33,35,-1,37,39,41,43,45,47,-1,49,-1,-1,-1,-1,-1,-1,-1,-1,-1,-1,-1,-1,-1,-1,-1,-1,-1,-1,-1,-1],"loss_changes":[4.2168274E0,4.2088385E0,9.371238E-1,1.3438406E1,3.3573895E0,0E0,1.1655431E0,4.594834E0,0E0,3.0710776E0,9.561361E0,0E0,3.5139337E0,4.2725215E0,8.688712E-1,2.8827863E0,3.771039E0,0E0,2.7733047E0,7.1212417E-1,1.0414124E-3,1.8184645E0,0E0,4.960301E-1,9.856928E-1,8.61325E0,1.272583E0,4.6026897E0,1.9872284E0,0E0,1.9098005E0,0E0,0E0,0E0,0E0,0E0,0E0,0E0,0E0,0E0,0E0,0E0,0E0,0E0,0E0,0E0,0E0,0E0,0E0,0E0,0E0],"parents":[2147483647,0,0,1,1,2,2,3,3,4,4,6,6,7,7,9,9,10,10,12,12,13,13,14,14,15,15,16,16,18,18,19,19,20,20,21,21,23,23,24,24,25,25,26,26,27,27,28,28,30,30],"right_children":[2,4,6,8,10,-1,12,14,-1,16,18,-1,20,22,24,26,28,-1,30,32,34,36,-1,38,40,42,44,46,48,-1,50,-1,-1,-1,-1,-1,-1,-1,-1,-1,-1,-1,-1,-1,-1,-1,-1,-1,-1,-1,-1],"split_conditions":[1.15E1,7E0,2.41E1,6.617376E0,8.55243E0,-7.998141E-3,2.71E1,6.5E0,1.6576514E-1,2.56E1,9E0,1.2863055E-1,3.49E1,6.023855E0,3.22E1,7.5E0,8.5E0,1.3660495E-1,2.0595097E1,1E0,1.2E1,2E0,1.0839782E-1,2.49E1,1E0,7.0024786E0,1.86E1,7.6717615E0,2.92E1,-7.413952E-2,9.203592E0,-7.284398E-2,1.3992095E-2,3.258434E-2,1.05325595E-1,2.8582944E-2,-3.8623082E-4,-1.2990549E-2,-5.9027888E-2,1.3232051E-2,-6.5680735E-2,-3.3887926E-2,1.4140527E-1,1.9623226E-2,-5.4027468E-2,-1.6349182E-2,2.331122E-2,-2.4755117E-3,-6.424931E-2,-1.2281621E-2,1.6317606E-2],"split_indices":[3,3,0,3,3,0,0,3,0,0,3,0,0,3,0,3,3,0,0,2,3,1,0,0,2,3,0,3,0,0,3,0,0,0,0,0,0,0,0,0,0,0,0,0,0,0,0,0,0,0,0],"split_type":[0,0,0,0,0,0,0,0,0,0,0,0,0,0,0,0,0,0,0,0,0,0,0,0,0,0,0,0,0,0,0,0,0,0,0,0,0,0,0,0,0,0,0,0,0,0,0,0,0,0,0],"sum_hessian":[4.1923E2,4.0944363E2,9.786352E0,1.15587875E2,2.9385577E2,1.3827462E0,8.403606E0,1.1086647E2,4.7214103E0,1.9065627E2,1.031995E2,2.1442366E0,6.2593694E0,9.02303E1,2.0636171E1,5.1723686E1,1.3893259E2,4.502073E0,9.8697426E1,2.5006351E0,3.7587345E0,8.6241714E1,3.9885817E0,1.3316165E1,7.320006E0,1.5297259E1,3.6426426E1,1.1669641E2,2.2236176E1,3.6681395E0,9.502929E1,1.3918592E0,1.1087759E0,1.2256056E0,2.533129E0,3.8958183E1,4.728353E1,3.8972013E0,9.418963E0,6.2939E0,1.0261061E0,1.2778069E1,2.519191E0,2.024353E0,3.4402073E1,6.533874E1,5.1357674E1,8.051736E0,1.418444E1,3.8274475E1,5.675481E1],"tree_param":{"num_deleted":"0","num_feature":"4","num_nodes":"51","size_leaf_vector":"1"}},{"base_weights":[1.7392805E-2,-4.253992E-2,1.6872181E-1,-9.599285E-2,1.111981E-1,7.51265E-2,3.644048E-1,3.1993937E-1,-1.2118143E-1,8.437184E-1,7.483821E-2,1.6401428E-1,-4.0704507E-1,1.01831235E-1,2.8274E-1,-5.0945938E-2,4.6209735E-1,-1.0151453E-1,-5.740351E-1,-3.6758777E-2,1.6332097E-1,3.865429E-2,7.508211E-2,3.6336952E-1,-3.2013148E-2,-9.564558E-2,-1.22940466E-1,-1.4951581E-1,3.7772828E-1,6.2549573E-1,-2.5894329E-2,3.2560095E-2,-1.3844573E-1,-7.290949E-2,-9.172895E-2,1.3853016E-1,-1.4009853E-1,-4.751275E-2,5.2738976E-1,-1.00651756E-1,9.829797E-2,8.8806204E-2,-4.592854E-1,1.4334315E-1,-7.790485E-2,2.9233336E-1,9.041581E-2,4.217881E-2,1.01282455E-1,-3.7529028E-3,1.1266209E-1,-4.793648E-2,-7.7855536E-3,-2.4259534E-2,2.2744793E-2,-6.088198E-3,4.9589273E-2,-4.9412355E-2,-3.3791636E-3,5.525249E-2,-6.0268093E-2,6.8793215E-2,5.6428766E-5,-2.1548972E-2,2.5659291E-2,1.6998006E-2,-6.820549E-2,-3.4729514E-2,3.570869E-2,6.345543E-2,1.617643E-2],"categories":[],"categories_nodes":[],"categories_segments":[],"categories_sizes":[],"default_left":[0,0,0,0,0,0,0,0,0,0,0,0,0,0,0,0,0,0,0,0,0,0,0,0,0,0,0,0,0,0,0,0,0,0,0,0,0,0,0,0,0,0,0,0,0,0,0,0,0,0,0,0,0,0,0,0,0,0,0,0,0,0,0,0,0,0,0,0,0,0,0],"id":19,"left_children":[1,3,5,7,9,11,13,15,17,19,21,23,25,-1,27,-1,29,31,33,-1,-1,35,-1,37,39,-1,41,43,45,47,-1,49,51,53,-1,55,57,59,61,63,-1,-1,65,67,-1,69,-1,-1,-1,-1,-1,-1,-1,-1,-1,-1,-1,-1,-1,-1,-1,-1,-1,-1,-1,-1,-1,-1,-1,-1,-1],"loss_changes":[3.7891579E0,2.4718738E0,2.1429346E0,2.37265E0,2.0071573E0,3.5562966E0,1.7456212E0,1.7676085E0,1.8189158E0,4.0225163E0,1.8091725E0,2.726E0,1.9053977E0,0E0,1.5032814E0,0E0,1.5307627E0,1.0107336E0,1.4051754E0,0E0,0E0,1.3117555E0,0E0,2.3513165E0,2.6028292E0,0E0,3.70302E0,1.4141526E0,1.0471072E0,3.4322858E-1,0E0,3.4697108E0,3.2577395E0,2.8785092E-1,0E0,3.3754559E0,9.785679E-1,3.9191577E0,2.093123E0,1.4735802E0,0E0,0E0,1.2276263E0,7.182409E-1,0E0,1.0849664E0,0E0,0E0,0E0,0E0,0E0,0E0,0E0,0E0,0E0,0E0,0E0,0E0,0E0,0E0,0E0,0E0,0E0,0E0,0E0,0E0,0E0,0E0,0E0,0E0,0E0],"parents":[2147483647,0,0,1,1,2,2,3,3,4,4,5,5,6,6,7,7,8,8,9,9,10,10,11,11,12,12,14,14,16,16,17,17,18,18,21,21,23,23,24,24,26,26,27,27,28,28,29,29,31,31,32,32,33,33,35,35,36,36,37,37,38,38,39,39,42,42,43,43,45,45],"right_children":[2,4,6,8,10,12,14,16,18,20,22,24,26,-1,28,-1,30,32,34,-1,-1,36,-1,38,40,-1,42,44,46,48,-1,50,52,54,-1,56,58,60,62,64,-1,-1,66,68,-1,70,-1,-1,-1,-1,-1,-1,-1,-1,-1,-1,-1,-1,-1,-1,-1,-1,-1,-1,-1,-1,-1,-1,-1,-1,-1],"split_conditions":[1E0,3.49E1,3.35E1,5E0,3.51E1,3.05E1,3.4E1,3.0768268E0,3.39E1,8.218065E0,1.15E1,7.406133E0,3.1359507E1,1.01831235E-1,3.5700542E1,-5.0945938E-2,3.02E1,7E0,2E0,-3.6758777E-2,1.6332097E-1,4.08E1,7.508211E-2,2.43E1,1.15E1,-9.564558E-2,3.17E1,2E0,1.0393358E1,4.7405734E0,-2.5894329E-2,6.617376E0,7.0024786E0,8.55243E0,-9.172895E-2,3.89E1,6.617376E0,2.17E1,2.9E1,2.84E1,9.829797E-2,8.8806204E-2,6E0,6.023855E0,-7.790485E-2,6.5E0,9.041581E-2,4.217881E-2,1.01282455E-1,-3.7529028E-3,1.1266209E-1,-4.793648E-2,-7.7855536E-3,-2.4259534E-2,2.2744793E-2,-6.088198E-3,4.9589273E-2,-4.9412355E-2,-3.3791636E-3,5.525249E-2,-6.0268093E-2,6.8793215E-2,5.6428766E-5,-2.1548972E-2,2.5659291E-2,1.6998006E-2,-6.820549E-2,-3.4729514E-2,3.570869E-2,6.345543E-2,1.617643E-2],"split_indices":[2,0,0,3,0,0,0,3,0,3,3,3,0,0,0,0,0,3,1,0,0,0,0,0,3,0,0,2,3,3,0,3,3,3,0,0,3,0,0,0,0,0,3,3,0,3,0,0,0,0,0,0,0,0,0,0,0,0,0,0,0,0,0,0,0,0,0,0,0,0,0],"split_type":[0,0,0,0,0,0,0,0,0,0,0,0,0,0,0,0,0,0,0,0,0,0,0,0,0,0,0,0,0,0,0,0,0,0,0,0,0,0,0,0,0,0,0,0,0,0,0,0,0,0,0,0,0,0,0,0,0,0,0,0,0,0,0,0,0,0,0,0,0,0,0],"sum_hessian":[4.1599713E2,2.9849808E2,1.1749904E2,2.2176764E2,7.673044E1,8.0418655E1,3.7080383E1,1.1995041E1,2.097726E2,2.5784917E0,7.415195E1,6.845829E1,1.1960366E1,2.843384E0,3.4237E1,1.3770574E0,1.0617984E1,2.0221481E2,7.557782E0,1.2283103E0,1.3501813E0,7.1387886E1,2.7640588E0,3.3517807E1,3.4940483E1,3.2700586E0,8.690308E0,6.064717E0,2.8172281E1,8.76436E0,1.8536228E0,4.3696804E1,1.5851802E2,3.5652256E0,3.9925566E0,4.594289E1,2.5444994E1,9.765318E0,2.3752491E1,3.3571083E1,1.3694003E0,1.7599201E0,6.930387E0,4.6662683E0,1.3984482E0,2.5578392E1,2.593891E0,7.112601E0,1.6517601E0,4.1973537E1,1.7232649E0,2.287834E1,1.3563968E2,2.4010642E0,1.1641614E0,3.002067E1,1.5922221E1,5.033675E0,2.0411318E1,4.695299E0,5.070019E0,1.7970451E1,5.7820387E0,2.570492E1,7.866165E0,1.8739469E0,5.0564404E0,1.2263718E0,3.4398966E0,5.997929E0,1.9580462E1],"tree_param":{"num_deleted":"0","num_feature":"4","num_nodes":"71","size_leaf_vector":"1"}},{"base_weights":[1.6780062E-2,2.3604932E-3,5.7080126E-1,1.10507436E-1,-7.478522E-2,-8.195522E-3,6.784046E-1,2.6224578E-2,1.847924E-1,-4.4739428E-1,-7.684966E-3,1.183908E-1,3.5258737E-1,1.3666551E-1,-2.4336699E-1,-5.0657344E-1,4.8256017E-2,3.139263E-1,-7.124146E-2,-4.0991625E-1,8.576458E-1,6.640415E-2,1.497548E-1,-3.0432743E-1,5.0731057E-1,-4.27868E-1,-9.595367E-2,-2.2813465E-1,7.549499E-2,-7.0416674E-2,1.0430263E-2,2.7499897E-2,9.78706E-2,1.5304814E-2,-3.0894866E-2,3.5577875E-2,-3.498873E-2,1.09982885E-1,-2.4275899E-2,-6.1686326E-2,-2.9457554E-2,-4.5650396E-2,-1.1895226E-2,1.2881497E-1,9.501756E-4],"categories":[],"categories_nodes":[],"categories_segments":[],"categories_sizes":[],"default_left":[0,0,0,0,0,0,0,0,0,0,0,0,0,0,0,0,0,0,0,0,0,0,0,0,0,0,0,0,0,0,0,0,0,0,0,0,0,0,0,0,0,0,0,0,0],"id":20,"left_children":[1,3,5,7,9,-1,11,13,-1,15,17,-1,19,21,23,25,-1,-1,27,29,31,33,-1,35,37,39,-1,41,43,-1,-1,-1,-1,-1,-1,-1,-1,-1,-1,-1,-1,-1,-1,-1,-1],"loss_changes":[3.3099582E0,3.3870919E0,7.938316E-1,2.4701532E1,5.9212847E0,0E0,1.0864153E0,4.8629565E0,0E0,2.2336102E0,4.059029E1,0E0,3.0381882E0,1.0964666E1,2.328065E0,8.1830883E-1,0E0,0E0,4.594138E0,5.96416E-1,4.9674988E-2,3.659763E0,0E0,1.4645171E0,2.0191932E0,6.035528E-1,0E0,2.3475008E0,8.268936E0,0E0,0E0,0E0,0E0,0E0,0E0,0E0,0E0,0E0,0E0,0E0,0E0,0E0,0E0,0E0,0E0],"parents":[2147483647,0,0,1,1,2,2,3,3,4,4,6,6,7,7,9,9,10,10,12,12,13,13,14,14,15,15,18,18,19,19,20,20,21,21,23,23,24,24,25,25,27,27,28,28],"right_children":[2,4,6,8,10,-1,12,14,-1,16,18,-1,20,22,24,26,-1,-1,28,30,32,34,-1,36,38,40,-1,42,44,-1,-1,-1,-1,-1,-1,-1,-1,-1,-1,-1,-1,-1,-1,-1,-1],"split_conditions":[1.15E1,7.5E0,2.41E1,7.0024786E0,7.6717615E0,-8.195522E-3,2.71E1,7E0,1.847924E-1,4.47E1,8E0,1.183908E-1,3.49E1,6.617376E0,4.61E1,3.91652E1,4.8256017E-2,3.139263E-1,8.55243E0,1E0,1.2E1,6.5E0,1.497548E-1,2.0595097E1,2E0,2E0,-9.595367E-2,2.65E1,9E0,-7.0416674E-2,1.0430263E-2,2.7499897E-2,9.78706E-2,1.5304814E-2,-3.0894866E-2,3.5577875E-2,-3.498873E-2,1.09982885E-1,-2.4275899E-2,-6.1686326E-2,-2.9457554E-2,-4.5650396E-2,-1.1895226E-2,1.2881497E-1,9.501756E-4],"split_indices":[3,3,0,3,3,0,0,3,0,0,3,0,0,3,0,0,0,0,3,2,3,3,0,0,1,1,0,0,3,0,0,0,0,0,0,0,0,0,0,0,0,0,0,0,0],"split_type":[0,0,0,0,0,0,0,0,0,0,0,0,0,0,0,0,0,0,0,0,0,0,0,0,0,0,0,0,0,0,0,0,0,0,0,0,0,0,0,0,0,0,0,0,0],"sum_hessian":[4.1349628E2,4.0398596E2,9.510325E0,1.6801758E2,2.3596838E2,1.3795987E0,8.130727E0,1.6121219E2,6.8053823E0,3.5144226E1,2.0082416E2,2.1544523E0,5.9762745E0,1.1471223E2,4.649997E1,3.3469604E1,1.6746217E0,3.017586E0,1.9780658E2,2.4562979E0,3.5199764E0,1.1007778E2,4.63444E0,4.355739E1,2.9425788E0,3.017167E1,3.297935E0,9.532678E1,1.024798E2,1.3273563E0,1.1289417E0,1.168367E0,2.3516092E0,8.991471E1,2.016307E1,2.3725815E0,4.1184807E1,1.3834324E0,1.5591463E0,1.0978032E1,1.9193638E1,2.9804869E1,6.552191E1,4.3333406E0,9.8146454E1],"tree_param":{"num_deleted":"0","num_feature":"4","num_nodes":"45","size_leaf_vector":"1"}},{"base_weights":[1.694023E-2,-3.6309045E-2,1.5027942E-1,-8.428662E-2,1.00190565E-1,6.770377E-1,1.1916376E-1,-6.504022E-2,-5.588991E-1,7.8835225E-1,6.564593E-2,8.794217E-2,3.155471E-1,8.3717674E-2,6.3682556E-1,3.0525097E-1,-8.8320225E-2,-5.609125E-2,-9.084689E-2,-3.6017463E-2,1.4977367E-1,3.3945765E-2,6.830254E-2,8.127444E-2,-4.4238538E-2,1.5982218E-1,-1.3503031E-1,3.118235E-1,9.385311E-1,-4.9157437E-2,4.4446635E-1,-3.7382063E-2,-1.5755215E-1,-2.2453371E-2,2.1804554E-2,1.2507518E-1,-1.301991E-1,1.7683983E-1,-5.0705858E-2,-2.2381268E-1,2.5156787E-1,7.299065E-2,-2.0683907E-2,1.1800122E-1,2.4587192E-2,5.6920256E-2,-1.7676381E-2,-1.4631058E-2,2.9407635E-2,-3.5940375E-2,-6.1433157E-3,-5.433051E-3,4.4394635E-2,-4.688361E-2,-3.0384655E-3,-3.7369174E-3,2.3896787E-2,-2.0684563E-3,-9.689124E-2,4.797637E-2,-3.3352368E-2],"categories":[],"categories_nodes":[],"categories_segments":[],"categories_sizes":[],"default_left":[0,0,0,0,0,0,0,0,0,0,0,0,0,0,0,0,0,0,0,0,0,0,0,0,0,0,0,0,0,0,0,0,0,0,0,0,0,0,0,0,0,0,0,0,0,0,0,0,0,0,0,0,0,0,0,0,0,0,0,0,0],"id":21,"left_children":[1,3,5,7,9,11,13,15,17,19,21,-1,23,25,27,29,31,33,-1,-1,-1,35,-1,-1,-1,37,39,41,43,-1,45,47,49,-1,-1,51,53,55,-1,57,59,-1,-1,-1,-1,-1,-1,-1,-1,-1,-1,-1,-1,-1,-1,-1,-1,-1,-1,-1,-1],"loss_changes":[2.9220788E0,1.9361535E0,1.8439562E0,1.9581333E0,1.7789714E0,1.8602657E-1,2.003408E0,1.8455752E0,1.4215269E0,3.464556E0,1.4333019E0,0E0,1.8042166E0,1.7871809E0,3.968532E-1,1.6276635E0,6.968231E-1,2.5682172E-1,0E0,0E0,0E0,1.0908723E0,0E0,0E0,0E0,9.8781085E-1,1.0144806E0,1.2097776E0,2.3659515E-1,0E0,9.792783E-1,4.235213E0,1.6106489E0,0E0,0E0,2.695875E0,8.691486E-1,1.0458186E0,0E0,3.4961202E0,9.1897917E-1,0E0,0E0,0E0,0E0,0E0,0E0,0E0,0E0,0E0,0E0,0E0,0E0,0E0,0E0,0E0,0E0,0E0,0E0,0E0,0E0],"parents":[2147483647,0,0,1,1,2,2,3,3,4,4,5,5,6,6,7,7,8,8,9,9,10,10,12,12,13,13,14,14,15,15,16,16,17,17,21,21,25,25,26,26,27,27,28,28,30,30,31,31,32,32,35,35,36,36,37,37,39,39,40,40],"right_children":[2,4,6,8,10,12,14,16,18,20,22,-1,24,26,28,30,32,34,-1,-1,-1,36,-1,-1,-1,38,40,42,44,-1,46,48,50,-1,-1,52,54,56,-1,58,60,-1,-1,-1,-1,-1,-1,-1,-1,-1,-1,-1,-1,-1,-1,-1,-1,-1,-1,-1,-1],"split_conditions":[1E0,3.49E1,4.5E0,3.39E1,3.51E1,2.92E1,4.47E1,5E0,2E0,8.218065E0,1.15E1,8.794217E-2,3.0768268E0,2E0,2E0,3.0768268E0,2.76E1,3.44E1,-9.084689E-2,-3.6017463E-2,1.4977367E-1,4.08E1,6.830254E-2,8.127444E-2,-4.4238538E-2,4.31E1,3.5700542E1,2E0,7.842243E0,-4.9157437E-2,3.02E1,2.62E1,2.91E1,-2.2453371E-2,2.1804554E-2,3.89E1,6.617376E0,2.52E1,-5.0705858E-2,3.0336943E1,4.08E1,7.299065E-2,-2.0683907E-2,1.1800122E-1,2.4587192E-2,5.6920256E-2,-1.7676381E-2,-1.4631058E-2,2.9407635E-2,-3.5940375E-2,-6.1433157E-3,-5.433051E-3,4.4394635E-2,-4.688361E-2,-3.0384655E-3,-3.7369174E-3,2.3896787E-2,-2.0684563E-3,-9.689124E-2,4.797637E-2,-3.3352368E-2],"split_indices":[2,0,3,0,0,0,0,3,1,3,3,0,3,2,2,3,0,0,0,0,0,0,0,0,0,0,0,1,3,0,0,0,0,0,0,0,3,0,0,0,0,0,0,0,0,0,0,0,0,0,0,0,0,0,0,0,0,0,0,0,0],"split_type":[0,0,0,0,0,0,0,0,0,0,0,0,0,0,0,0,0,0,0,0,0,0,0,0,0,0,0,0,0,0,0,0,0,0,0,0,0,0,0,0,0,0,0,0,0,0,0,0,0,0,0,0,0,0,0,0,0,0,0,0,0],"sum_hessian":[4.0977948E2,2.933552E2,1.164243E2,2.1734439E2,7.6010796E1,5.3357854E0,1.1108852E2,2.0996689E2,7.377501E0,2.5902052E0,7.342059E1,2.5021617E0,2.8336236E0,1.0505665E2,6.0318675E0,1.1703244E1,1.9826364E2,3.5015144E0,3.8759866E0,1.1769459E0,1.4132594E0,7.083829E1,2.5823019E0,1.6674638E0,1.1661599E0,7.8140274E1,2.6916368E1,3.8827946E0,2.149073E0,1.3641635E0,1.0339081E1,1.1511007E2,8.315357E1,2.2809405E0,1.2205739E0,4.5703045E1,2.5135244E1,7.691243E1,1.2278478E0,2.2231882E1,4.684486E0,1.9243395E0,1.9584551E0,1.0718112E0,1.0772618E0,8.679985E0,1.6590966E0,8.705833E1,2.8051746E1,2.593999E1,5.7213585E1,2.9778473E1,1.5924572E1,4.880447E0,2.0254799E1,1.738159E1,5.9530838E1,1.8276993E1,3.9548898E0,3.4996006E0,1.1848854E0],"tree_param":{"num_deleted":"0","num_feature":"4","num_nodes":"61","size_leaf_vector":"1"}},{"base_weights":[1.577135E-2,2.5258951E-3,5.3192705E-1,9.981351E-2,-6.700051E-2,-7.031367E-3,6.330956E-1,2.2349585E-2,1.6949251E-1,-4.1993394E-1,-4.9935607E-3,1.0990367E-1,3.1882253E-1,1.20367914E-1,-2.208421E-1,-4.767388E-1,4.3333527E-2,2.6028034E-1,-6.384249E-2,-3.8823667E-1,7.994458E-1,5.516973E-2,1.4043222E-1,-2.7890062E-1,4.7133538E-1,-3.9763078E-1,-9.361712E-2,-2.0765056E-1,6.860475E-2,7.708984E-3,-7.229454E-2,2.3015836E-2,9.259799E-2,1.30906E-2,-2.8066272E-2,3.3434026E-2,-3.2310802E-2,1.0135796E-1,-2.2705007E-2,-5.8376838E-2,-2.6965085E-2,-4.2200584E-2,-1.0863117E-2,1.2213739E-1,7.8672025E-4],"categories":[],"categories_nodes":[],"categories_segments":[],"categories_sizes":[],"default_left":[0,0,0,0,0,0,0,0,0,0,0,0,0,0,0,0,0,0,0,0,0,0,0,0,0,0,0,0,0,0,0,0,0,0,0,0,0,0,0,0,0,0,0,0,0],"id":22,"left_children":[1,3,5,7,9,-1,11,13,-1,15,17,-1,19,21,23,25,-1,-1,27,29,31,33,-1,35,37,39,-1,41,43,-1,-1,-1,-1,-1,-1,-1,-1,-1,-1,-1,-1,-1,-1,-1,-1],"loss_changes":[2.7953904E0,2.7112646E0,6.678169E-1,2.060381E1,5.114287E0,0E0,9.4681644E-1,3.8483977E0,0E0,1.8993926E0,3.0839016E1,0E0,2.5869095E0,9.542601E0,1.996531E0,8.351636E-1,0E0,0E0,3.7556937E0,5.827927E-1,9.770703E-2,2.8449044E0,0E0,1.2858629E0,1.7310146E0,5.591359E-1,0E0,1.9583707E0,7.202571E0,0E0,0E0,0E0,0E0,0E0,0E0,0E0,0E0,0E0,0E0,0E0,0E0,0E0,0E0,0E0,0E0],"parents":[2147483647,0,0,1,1,2,2,3,3,4,4,6,6,7,7,9,9,10,10,12,12,13,13,14,14,15,15,18,18,19,19,20,20,21,21,23,23,24,24,25,25,27,